{"learner":{"attributes":{"scikit_learn":"{\"n_estimators\": 162, \"objective\": \"reg:squarederror\", \"max_depth\": null, \"learning_rate\": 0.031080949501415635, \"verbosity\": null, \"booster\": null, \"tree_method\": null, \"gamma\": null, \"min_child_weight\": null, \"max_delta_step\": null, \"subsample\": 0.8524515054888824, \"colsample_bytree\": null, \"colsample_bylevel\": null, \"colsample_bynode\": null, \"reg_alpha\": null, \"reg_lambda\": 9.87081811364867, \"scale_pos_weight\": null, \"base_score\": null, \"missing\": NaN, \"num_parallel_tree\": null, \"kwargs\": {\"seed\": 333, \"min_split_loss\": 0.016906382385946373}, \"random_state\": null, \"n_jobs\": -1, \"monotone_constraints\": null, \"interaction_constraints\": null, \"importance_type\": \"total_gain\", \"gpu_id\": null, \"validate_parameters\": null, \"n_features_in_\": 151, \"type\": \"XGBRegressor\"}"},"gradient_booster":{"model":{"gbtree_model_param":{"num_trees":"162","size_leaf_vector":"0"},"tree_info":[0,0,0,0,0,0,0,0,0,0,0,0,0,0,0,0,0,0,0,0,0,0,0,0,0,0,0,0,0,0,0,0,0,0,0,0,0,0,0,0,0,0,0,0,0,0,0,0,0,0,0,0,0,0,0,0,0,0,0,0,0,0,0,0,0,0,0,0,0,0,0,0,0,0,0,0,0,0,0,0,0,0,0,0,0,0,0,0,0,0,0,0,0,0,0,0,0,0,0,0,0,0,0,0,0,0,0,0,0,0,0,0,0,0,0,0,0,0,0,0,0,0,0,0,0,0,0,0,0,0,0,0,0,0,0,0,0,0,0,0,0,0,0,0,0,0,0,0,0,0,0,0,0,0,0,0,0,0,0,0,0,0],"trees":[{"base_weights":[-3.6993173E-1],"default_left":[false],"id":0,"leaf_child_counts":[0],"left_children":[-1],"loss_changes":[0E0],"parents":[2147483647],"right_children":[-1],"split_conditions":[-1.1497829E-2],"split_indices":[0],"sum_hessian":[5.746E3],"tree_param":{"num_deleted":"0","num_feature":"151","num_nodes":"1","size_leaf_vector":"0"}},{"base_weights":[-3.5840964E-1],"default_left":[false],"id":1,"leaf_child_counts":[0],"left_children":[-1],"loss_changes":[0E0],"parents":[2147483647],"right_children":[-1],"split_conditions":[-1.1139712E-2],"split_indices":[0],"sum_hessian":[5.742E3],"tree_param":{"num_deleted":"0","num_feature":"151","num_nodes":"1","size_leaf_vector":"0"}},{"base_weights":[-3.47127E-1,-3.5174742E-1,-3.0389735E-1,-3.5178107E-1,-1.6482266E-2],"default_left":[true,false,false,true,true],"id":2,"leaf_child_counts":[0,0,0,0,0],"left_children":[1,-1,-1,-1,-1],"loss_changes":[9.3566895E-2,6.1035156E-4,0E0,0E0,0E0],"parents":[2147483647,0,0,1,1],"right_children":[2,-1,-1,-1,-1],"split_conditions":[5E-1,-1.0932644E-2,-9.445419E-3,-1.093369E-2,-5.1228446E-4],"split_indices":[93,19,0,2147483647,2147483647],"sum_hessian":[5.741E3,5.123E3,6.18E2,5.122E3,1E0],"tree_param":{"num_deleted":"2","num_feature":"151","num_nodes":"5","size_leaf_vector":"0"}},{"base_weights":[-3.3667693E-1],"default_left":[false],"id":3,"leaf_child_counts":[0],"left_children":[-1],"loss_changes":[0E0],"parents":[2147483647],"right_children":[-1],"split_conditions":[-1.0464239E-2],"split_indices":[0],"sum_hessian":[5.738E3],"tree_param":{"num_deleted":"0","num_feature":"151","num_nodes":"1","size_leaf_vector":"0"}},{"base_weights":[-3.2636848E-1,-3.307536E-1,-2.855072E-1],"default_left":[true,false,false],"id":4,"leaf_child_counts":[0,0,0],"left_children":[1,-1,-1],"loss_changes":[1.0638428E-1,0E0,0E0],"parents":[2147483647,0,0],"right_children":[2,-1,-1],"split_conditions":[5E-1,-1.0280136E-2,-8.873835E-3],"split_indices":[93,0,0],"sum_hessian":[5.786E3,5.162E3,6.24E2],"tree_param":{"num_deleted":"0","num_feature":"151","num_nodes":"3","size_leaf_vector":"0"}},{"base_weights":[-3.1561545E-1,-2.9668608E-1,-3.2578337E-1],"default_left":[true,false,false],"id":5,"leaf_child_counts":[0,0,0],"left_children":[1,-1,-1],"loss_changes":[1.5765381E-1,0E0,0E0],"parents":[2147483647,0,0],"right_children":[2,-1,-1],"split_conditions":[4.5E0,-9.221286E-3,-1.0125657E-2],"split_indices":[89,0,0],"sum_hessian":[5.766E3,2.119E3,3.647E3],"tree_param":{"num_deleted":"0","num_feature":"151","num_nodes":"3","size_leaf_vector":"0"}},{"base_weights":[-3.0622736E-1,-3.10462E-1,-2.671651E-1,-3.1049225E-1,-1.432117E-2],"default_left":[true,true,false,true,true],"id":6,"leaf_child_counts":[0,0,0,0,0],"left_children":[1,-1,-1,-1,-1],"loss_changes":[1.3024902E-1,1.953125E-3,0E0,0E0,0E0],"parents":[2147483647,0,0,1,1],"right_children":[2,-1,-1,-1,-1],"split_conditions":[5E-1,-9.649454E-3,-8.303745E-3,-9.650394E-3,-4.4511555E-4],"split_indices":[93,1,0,2147483647,2147483647],"sum_hessian":[5.727E3,5.105E3,6.22E2,5.104E3,1E0],"tree_param":{"num_deleted":"2","num_feature":"151","num_nodes":"5","size_leaf_vector":"0"}},{"base_weights":[-2.9671973E-1,-2.7923948E-1,-3.061687E-1,-2.793073E-1,-1.2343969E-2],"default_left":[true,true,false,true,true],"id":7,"leaf_child_counts":[0,0,0,0,0],"left_children":[1,-1,-1,-1,-1],"loss_changes":[1.10076904E-1,4.714966E-3,0E0,0E0,0E0],"parents":[2147483647,0,0,1,1],"right_children":[2,-1,-1,-1,-1],"split_conditions":[4.5E0,-8.679029E-3,-9.516014E-3,-8.681136E-3,-3.836623E-4],"split_indices":[89,25,0,2147483647,2147483647],"sum_hessian":[5.766E3,2.129E3,3.637E3,2.128E3,1E0],"tree_param":{"num_deleted":"2","num_feature":"151","num_nodes":"5","size_leaf_vector":"0"}},{"base_weights":[-2.8781992E-1,-2.7063274E-1,-2.9703757E-1,-2.7070084E-1,-1.154559E-2,-2.7076346E-1,-1.26351435E-2],"default_left":[true,true,false,true,true,true,true],"id":8,"leaf_child_counts":[0,0,0,0,0,0,0],"left_children":[1,-1,-1,-1,-1,-1,-1],"loss_changes":[1.2359619E-1,6.7749023E-3,0E0,6.5612793E-4,0E0,0E0,0E0],"parents":[2147483647,0,0,1,1,3,3],"right_children":[2,-1,-1,-1,-1,-1,-1],"split_conditions":[4.5E0,-8.411523E-3,-9.23221E-3,-8.413639E-3,-3.588479E-4,-8.415585E-3,-3.9271227E-4],"split_indices":[89,25,0,2147483647,2147483647,2147483647,2147483647],"sum_hessian":[5.779E3,2.122E3,3.657E3,2.121E3,1E0,2.12E3,1E0],"tree_param":{"num_deleted":"4","num_feature":"151","num_nodes":"7","size_leaf_vector":"0"}},{"base_weights":[-2.7871907E-1,-2.8284127E-1,-2.4133936E-1,-2.8287464E-1,-1.0260255E-2,-2.8290462E-1,-1.1861372E-2],"default_left":[true,false,false,true,false,true,true],"id":9,"leaf_child_counts":[0,0,0,0,0,0,0],"left_children":[1,3,-1,-1,-1,-1,-1],"loss_changes":[2.1450806E-1,1.8035889E-2,0E0,8.575439E-3,0E0,0E0,0E0],"parents":[2147483647,0,0,1,1,3,3],"right_children":[2,4,-1,-1,-1,-1,-1],"split_conditions":[5E-1,8.950001E0,-7.5010564E-3,-8.792013E-3,-3.1889847E-4,-8.792944E-3,-3.686627E-4],"split_indices":[93,19,0,58,0,2147483647,2147483647],"sum_hessian":[5.755E3,5.125E3,6.3E2,5.124E3,1E0,5.123E3,1E0],"tree_param":{"num_deleted":"2","num_feature":"151","num_nodes":"7","size_leaf_vector":"0"}},{"base_weights":[-2.7003792E-1,-2.537027E-1,-2.7893835E-1,-2.5377104E-1,-9.963047E-3,-2.7897635E-1,-1.3054458E-2,-2.538339E-1,-1.10526E-2],"default_left":[true,true,false,true,true,true,true,true,true],"id":10,"leaf_child_counts":[0,0,0,0,0,0,0,0,0],"left_children":[1,-1,-1,-1,-1,-1,-1,-1,-1],"loss_changes":[1.3366699E-1,1.0498047E-2,4.8828125E-4,4.7454834E-3,0E0,0E0,0E0,0E0,0E0],"parents":[2147483647,0,0,1,1,2,2,3,3],"right_children":[2,-1,-1,-1,-1,-1,-1,-1,-1],"split_conditions":[4.5E0,-7.885321E-3,-8.669669E-3,-7.887444E-3,-3.0966097E-4,-8.67085E-3,-4.0574497E-4,-7.889398E-3,-3.4352532E-4],"split_indices":[89,25,54,2147483647,2147483647,2147483647,2147483647,2147483647,2147483647],"sum_hessian":[5.714E3,2.118E3,3.596E3,2.117E3,1E0,3.595E3,1E0,2.116E3,1E0],"tree_param":{"num_deleted":"6","num_feature":"151","num_nodes":"9","size_leaf_vector":"0"}},{"base_weights":[-2.6163608E-1,-2.4686636E-1,-2.7077758E-1,-2.4692982E-1,-9.2376815E-3,-2.4698819E-1,-1.0327236E-2],"default_left":[true,true,false,true,true,true,true],"id":11,"leaf_child_counts":[0,0,0,0,0,0,0],"left_children":[1,-1,-1,-1,-1,-1,-1],"loss_changes":[1.16119385E-1,1.2298584E-2,0E0,6.6986084E-3,0E0,0E0,0E0],"parents":[2147483647,0,0,1,1,3,3],"right_children":[2,-1,-1,-1,-1,-1,-1],"split_conditions":[8.15E-1,-7.672841E-3,-8.416025E-3,-7.6748137E-3,-2.8711592E-4,-7.6766275E-3,-3.209803E-4],"split_indices":[84,24,0,2147483647,2147483647,2147483647,2147483647],"sum_hessian":[5.737E3,2.299E3,3.438E3,2.298E3,1E0,2.297E3,1E0],"tree_param":{"num_deleted":"4","num_feature":"151","num_nodes":"7","size_leaf_vector":"0"}},{"base_weights":[-2.5343075E-1,-2.572194E-1,-2.1900974E-1,-2.5893417E-1,-1.9405448E-1,-2.589653E-1,-9.621415E-3,-1.9478516E-1,-6.1641065E-3,-2.5899264E-1,-1.1354216E-2,-1.960285E-1,-1.481605E-2,-1.9661589E-1,-8.799735E-3,-9.010683E-3,-1.9719669E-1],"default_left":[true,true,false,true,true,true,true,true,true,true,true,true,true,true,true,true,true],"id":12,"leaf_child_counts":[0,0,0,0,0,0,0,0,0,0,0,0,0,0,0,0,0],"left_children":[1,3,-1,-1,-1,-1,-1,-1,-1,-1,-1,-1,-1,-1,-1,-1,-1],"loss_changes":[1.9415283E-1,5.92041E-2,0E0,1.3916016E-2,1.215601E-2,4.547119E-3,0E0,1.0237217E-2,0E0,0E0,0E0,1.8234253E-3,0E0,1.0795593E-3,0E0,0E0,0E0],"parents":[2147483647,0,0,1,1,3,3,4,4,5,5,7,7,11,11,13,13],"right_children":[2,4,-1,-1,-1,-1,-1,-1,-1,-1,-1,-1,-1,-1,-1,-1,-1],"split_conditions":[5E-1,5E-1,-6.8070306E-3,-8.04792E-3,-6.0313977E-3,-8.048888E-3,-2.9904273E-4,-6.054108E-3,-1.9158628E-4,-8.049738E-3,-3.5289983E-4,-6.092752E-3,-4.6049693E-4,-6.1110086E-3,-2.7350415E-4,-2.8006057E-4,-6.1290604E-3],"split_indices":[93,92,0,58,2,2147483647,2147483647,2147483647,2147483647,2147483647,2147483647,2147483647,2147483647,2147483647,2147483647,2147483647,2147483647],"sum_hessian":[5.743E3,5.116E3,6.27E2,4.951E3,1.65E2,4.95E3,1E0,1.64E2,1E0,4.949E3,1E0,1.62E2,2E0,1.61E2,1E0,1E0,1.6E2],"tree_param":{"num_deleted":"12","num_feature":"151","num_nodes":"17","size_leaf_vector":"0"}},{"base_weights":[-2.458434E-1,-2.3063917E-1,-2.542063E-1,-2.3070699E-1,-7.791539E-3,-2.5424403E-1,-1.0810797E-2,-2.3076937E-1,-8.881093E-3],"default_left":[true,true,false,true,true,true,true,true,true],"id":13,"leaf_child_counts":[0,0,0,0,0,0,0,0,0],"left_children":[1,-1,-1,-1,-1,-1,-1,-1,-1],"loss_changes":[1.545105E-1,1.4801025E-2,6.149292E-3,9.536743E-3,0E0,0E0,0E0,0E0,0E0],"parents":[2147483647,0,0,1,1,2,2,3,3],"right_children":[2,-1,-1,-1,-1,-1,-1,-1,-1],"split_conditions":[4.5E0,-7.168485E-3,-7.900973E-3,-7.1705924E-3,-2.4216845E-4,-7.902146E-3,-3.3600983E-4,-7.172531E-3,-2.760328E-4],"split_indices":[89,25,54,2147483647,2147483647,2147483647,2147483647,2147483647,2147483647],"sum_hessian":[5.757E3,2.143E3,3.614E3,2.142E3,1E0,3.613E3,1E0,2.141E3,1E0],"tree_param":{"num_deleted":"6","num_feature":"151","num_nodes":"9","size_leaf_vector":"0"}},{"base_weights":[-2.3822095E-1,-2.1922055E-1,-2.4443945E-1,-2.1930592E-1,-8.221669E-3,-2.4447103E-1,-1.008399E-2,-2.1937647E-1,-1.0309544E-2,-2.4450223E-1,-1.0229928E-2,-1.0650099E-2,-2.4453239E-1],"default_left":[true,true,false,true,true,true,true,true,true,true,true,true,true],"id":14,"leaf_child_counts":[0,0,0,0,0,0,0,0,0,0,0,0,0],"left_children":[1,-1,-1,-1,-1,-1,-1,-1,-1,-1,-1,-1,-1],"loss_changes":[1.5444946E-1,9.613037E-3,7.2631836E-3,9.918213E-5,0E0,6.5460205E-3,0E0,0E0,0E0,4.3945312E-3,0E0,0E0,0E0],"parents":[2147483647,0,0,1,1,2,2,3,3,5,5,9,9],"right_children":[2,-1,-1,-1,-1,-1,-1,-1,-1,-1,-1,-1,-1],"split_conditions":[1.5E0,-6.813583E-3,-7.5974106E-3,-6.8162363E-3,-2.5553728E-4,-7.5983917E-3,-3.1342E-4,-6.818429E-3,-3.2043044E-4,-7.5993617E-3,-3.1795588E-4,-3.310152E-4,-7.600299E-3],"split_indices":[89,58,54,2147483647,2147483647,2147483647,2147483647,2147483647,2147483647,2147483647,2147483647,2147483647,2147483647],"sum_hessian":[5.774E3,1.512E3,4.262E3,1.511E3,1E0,4.261E3,1E0,1.51E3,1E0,4.26E3,1E0,1E0,4.259E3],"tree_param":{"num_deleted":"10","num_feature":"151","num_nodes":"13","size_leaf_vector":"0"}},{"base_weights":[-2.3083383E-1,-2.3437591E-1,-1.9823681E-1,-2.3594801E-1,-1.7619659E-1,-2.3597917E-1,-7.5948914E-3,-1.7694832E-1,-4.3230816E-3,-2.360065E-1,-9.327694E-3,-1.7754118E-1,-6.9587105E-3,-7.169658E-3,-1.7812751E-1,-7.7065253E-3,-1.7868623E-1],"default_left":[true,true,false,true,true,true,false,true,true,true,true,true,true,true,true,true,true],"id":15,"leaf_child_counts":[0,0,0,0,0,0,0,0,0,0,0,0,0,0,0,0,0],"left_children":[1,3,-1,5,-1,-1,-1,-1,-1,-1,-1,-1,-1,-1,-1,-1,-1],"loss_changes":[1.9973755E-1,5.5114746E-2,0E0,1.7333984E-2,1.4784813E-2,8.7890625E-3,0E0,5.1259995E-3,0E0,0E0,0E0,4.462719E-3,0E0,0E0,2.5820732E-3,0E0,0E0],"parents":[2147483647,0,0,1,1,3,3,4,4,5,5,7,7,11,11,14,14],"right_children":[2,4,-1,6,-1,-1,-1,-1,-1,-1,-1,-1,-1,-1,-1,-1,-1],"split_conditions":[5E-1,5E-1,-6.1613885E-3,1.93E1,-5.4763574E-3,-7.334457E-3,-2.3605644E-4,-5.499722E-3,-1.3436549E-4,-7.335306E-3,-2.899136E-4,-5.5181487E-3,-2.1628333E-4,-2.2283978E-4,-5.5363723E-3,-2.3952613E-4,-5.5537377E-3],"split_indices":[93,92,0,58,2,57,0,2147483647,2147483647,2147483647,2147483647,2147483647,2147483647,2147483647,2147483647,2147483647,2147483647],"sum_hessian":[5.692E3,5.079E3,6.13E2,4.916E3,1.63E2,4.915E3,1E0,1.62E2,1E0,4.914E3,1E0,1.61E2,1E0,1E0,1.6E2,1E0,1.59E2],"tree_param":{"num_deleted":"10","num_feature":"151","num_nodes":"17","size_leaf_vector":"0"}},{"base_weights":[-2.238339E-1,-2.2705191E-1,-1.9370477E-1,-2.2850773E-1,-1.6994064E-1,-1.9388688E-1,-7.36789E-3,-2.2853458E-1,-8.653E-3,-1.7071754E-1,-3.7784062E-3,-1.9403906E-1,-9.115984E-3,-1.713274E-1,-6.454944E-3,-6.665891E-3,-1.719307E-1,-7.202759E-3,-1.7250557E-1],"default_left":[true,true,true,true,true,true,true,true,true,true,true,true,true,true,true,true,true,true,true],"id":16,"leaf_child_counts":[0,0,0,0,0,0,0,0,0,0,0,0,0,0,0,0,0,0,0],"left_children":[1,3,-1,-1,-1,-1,-1,-1,-1,-1,-1,-1,-1,-1,-1,-1,-1,-1,-1],"loss_changes":[1.2615967E-1,4.6020508E-2,7.101059E-3,1.0070801E-2,1.5174389E-2,8.392334E-5,0E0,0E0,0E0,5.7001114E-3,0E0,0E0,0E0,5.065918E-3,0E0,0E0,3.25346E-3,0E0,0E0],"parents":[2147483647,0,0,1,1,2,2,3,3,4,4,5,5,9,9,13,13,16,16],"right_children":[2,4,-1,-1,-1,-1,-1,-1,-1,-1,-1,-1,-1,-1,-1,-1,-1,-1,-1],"split_conditions":[5E-1,5E-1,-6.0205283E-3,-7.102237E-3,-5.2819164E-3,-6.0261884E-3,-2.2900102E-4,-7.103072E-3,-2.6894346E-4,-5.306063E-3,-1.1743645E-4,-6.0309186E-3,-2.8333344E-4,-5.3250184E-3,-2.006258E-4,-2.0718222E-4,-5.3437697E-3,-2.2386858E-4,-5.361637E-3],"split_indices":[93,92,51,57,40,2147483647,2147483647,2147483647,2147483647,2147483647,2147483647,2147483647,2147483647,2147483647,2147483647,2147483647,2147483647,2147483647,2147483647],"sum_hessian":[5.769E3,5.154E3,6.15E2,4.997E3,1.57E2,6.14E2,1E0,4.996E3,1E0,1.56E2,1E0,6.13E2,1E0,1.55E2,1E0,1E0,1.54E2,1E0,1.53E2],"tree_param":{"num_deleted":"14","num_feature":"151","num_nodes":"19","size_leaf_vector":"0"}},{"base_weights":[-2.1686362E-1,-2.0516798E-1,-2.2594301E-1,-2.0521767E-1,-6.9198445E-3,-2.2598474E-1,-8.7630935E-3,-2.0526268E-1,-8.057083E-3,-2.0534042E-1,-1.7477507E-2,-9.462416E-3,-2.0537966E-1],"default_left":[true,true,true,true,true,true,true,true,true,true,true,true,true],"id":17,"leaf_child_counts":[0,0,0,0,0,0,0,0,0,0,0,0,0],"left_children":[1,-1,-1,-1,-1,-1,-1,-1,-1,-1,-1,-1,-1],"loss_changes":[1.519165E-1,1.1749268E-2,8.850098E-3,6.8740845E-3,0E0,0E0,0E0,2.7313232E-3,0E0,9.0789795E-4,0E0,0E0,0E0],"parents":[2147483647,0,0,1,1,2,2,3,3,7,7,9,9],"right_children":[2,-1,-1,-1,-1,-1,-1,-1,-1,-1,-1,-1,-1],"split_conditions":[1.365E0,-6.3768155E-3,-7.0225233E-3,-6.37836E-3,-2.1507534E-4,-7.02382E-3,-2.7236526E-4,-6.379759E-3,-2.5042178E-4,-6.3821753E-3,-5.432175E-4,-2.9410087E-4,-6.3833953E-3],"split_indices":[84,58,5,2147483647,2147483647,2147483647,2147483647,2147483647,2147483647,2147483647,2147483647,2147483647,2147483647],"sum_hessian":[5.73E3,2.606E3,3.124E3,2.605E3,1E0,3.123E3,1E0,2.604E3,1E0,2.602E3,2E0,1E0,2.601E3],"tree_param":{"num_deleted":"10","num_feature":"151","num_nodes":"13","size_leaf_vector":"0"}},{"base_weights":[-2.0985863E-1,-2.1312773E-1,-1.8049987E-1,-2.1455352E-1,-1.5972154E-1,-2.146194E-1,-2.4817836E-2,-1.6101165E-1,-8.557252E-3,-1.6179292E-1,-2.7468354E-3,-1.6241184E-1,-5.3824647E-3,-1.2296017E-2,-1.6349669E-1],"default_left":[true,true,false,true,true,true,true,true,false,true,true,true,true,true,true],"id":18,"leaf_child_counts":[0,0,0,0,0,0,0,0,0,0,0,0,0,0,0],"left_children":[1,3,-1,-1,7,-1,-1,-1,-1,-1,-1,-1,-1,-1,-1],"loss_changes":[1.6856384E-1,4.901123E-2,0E0,8.987427E-3,1.9722939E-2,0E0,0E0,1.649332E-2,0E0,7.622242E-3,0E0,7.3313713E-3,0E0,0E0,0E0],"parents":[2147483647,0,0,1,1,3,3,4,4,7,7,9,9,11,11],"right_children":[2,4,-1,-1,8,-1,-1,-1,-1,-1,-1,-1,-1,-1,-1],"split_conditions":[5E-1,5E-1,-5.6101074E-3,-6.668527E-3,9.35E0,-6.6705747E-3,-7.713619E-4,-5.0043953E-3,-2.659675E-4,-5.0286776E-3,-8.537425E-5,-5.047914E-3,-1.6729212E-4,-3.821719E-4,-5.081632E-3],"split_indices":[93,92,0,16,40,2147483647,2147483647,2,0,2147483647,2147483647,2147483647,2147483647,2147483647,2147483647],"sum_hessian":[5.703E3,5.076E3,6.27E2,4.915E3,1.61E2,4.912E3,3E0,1.59E2,2E0,1.58E2,1E0,1.57E2,1E0,2E0,1.55E2],"tree_param":{"num_deleted":"8","num_feature":"151","num_nodes":"15","size_leaf_vector":"0"}},{"base_weights":[-2.0342909E-1,-1.9212553E-1,-2.119185E-1,-1.9309258E-1,-1.0476958E-1,-2.1195887E-1,-7.601024E-3,-1.9320521E-1,-8.415415E-3,-1.0640478E-1,-2.286483E-3,-2.1199246E-1,-9.602171E-3,-1.0801861E-1,-2.6814616E-3],"default_left":[true,true,true,true,true,true,true,false,false,true,true,true,true,true,true],"id":19,"leaf_child_counts":[0,0,0,0,0,0,0,0,0,0,0,0,0,0,0],"left_children":[1,3,-1,7,-1,-1,-1,-1,-1,-1,-1,-1,-1,-1,-1],"loss_changes":[1.5255737E-1,1.8592834E-2,1.0513306E-2,3.6857605E-2,5.955875E-3,1.6937256E-3,0E0,0E0,0E0,5.321443E-3,0E0,0E0,0E0,0E0,0E0],"parents":[2147483647,0,0,1,1,2,2,3,3,4,4,5,5,9,9],"right_children":[2,4,-1,8,-1,-1,-1,-1,-1,-1,-1,-1,-1,-1,-1],"split_conditions":[1.295E0,6.6499996E0,-6.5866285E-3,5.6000004E0,-3.2563382E-3,-6.587883E-3,-2.3624705E-4,-6.0050013E-3,-2.615591E-4,-3.3071616E-3,-7.106607E-5,-6.588927E-3,-2.9844462E-4,-3.357321E-3,-8.334238E-5],"split_indices":[84,58,5,57,2,2147483647,2147483647,0,0,2147483647,2147483647,2147483647,2147483647,2147483647,2147483647],"sum_hessian":[5.768E3,2.574E3,3.194E3,2.534E3,4E1,3.193E3,1E0,2.532E3,2E0,3.9E1,1E0,3.192E3,1E0,3.8E1,1E0],"tree_param":{"num_deleted":"8","num_feature":"151","num_nodes":"15","size_leaf_vector":"0"}},{"base_weights":[-1.9734094E-1,-1.8438475E-1,-2.0442596E-1,-1.8540484E-1,-8.9661E-2,-2.044634E-1,-6.304655E-3,-1.8545729E-1,-6.9070966E-3,-2.381912E-3,-9.122123E-2,-7.123609E-3,-2.0449841E-1,-1.8550436E-1,-7.95996E-3,-9.243129E-2,-3.9532203E-3,-2.0453203E-1,-7.592513E-3,-1.8559144E-1,-1.5847845E-2,-9.052539E-3,-2.0456128E-1,-8.562763E-3,-1.8563552E-1],"default_left":[true,true,false,true,true,true,true,true,true,true,true,true,true,true,true,true,true,true,true,true,true,true,true,true,true],"id":20,"leaf_child_counts":[0,0,0,0,0,0,0,0,0,0,0,0,0,0,0,0,0,0,0,0,0,0,0,0,0],"left_children":[1,3,-1,-1,-1,-1,-1,-1,-1,-1,-1,-1,-1,-1,-1,-1,-1,-1,-1,-1,-1,-1,-1,-1,-1],"loss_changes":[1.5637207E-1,4.2289734E-2,1.4205933E-2,7.05719E-3,3.5569966E-3,1.0696411E-2,0E0,2.9907227E-3,0E0,0E0,7.0917606E-4,0E0,8.682251E-3,2.029419E-3,0E0,0E0,0E0,2.4719238E-3,0E0,6.866455E-4,0E0,0E0,0E0,0E0,0E0],"parents":[2147483647,0,0,1,1,2,2,3,3,4,4,5,5,7,7,10,10,12,12,13,13,17,17,19,19],"right_children":[2,4,-1,-1,-1,-1,-1,-1,-1,-1,-1,-1,-1,-1,-1,-1,-1,-1,-1,-1,-1,-1,-1,-1,-1],"split_conditions":[4.5E0,4.5E0,-6.353753E-3,-5.7625584E-3,-2.786749E-3,-6.354917E-3,-1.9595468E-4,-5.7641887E-3,-2.1467912E-4,-7.403209E-5,-2.8352425E-3,-2.2140854E-4,-6.356005E-3,-5.765652E-3,-2.474031E-4,-2.8728524E-3,-1.2286984E-4,-6.3570496E-3,-2.3598253E-4,-5.7683582E-3,-4.925661E-4,-2.813615E-4,-6.357959E-3,-2.661388E-4,-5.769728E-3],"split_indices":[89,57,54,85,56,2147483647,2147483647,2147483647,2147483647,2147483647,2147483647,2147483647,2147483647,2147483647,2147483647,2147483647,2147483647,2147483647,2147483647,2147483647,2147483647,2147483647,2147483647,2147483647,2147483647],"sum_hessian":[5.747E3,2.126E3,3.621E3,2.094E3,3.2E1,3.62E3,1E0,2.093E3,1E0,1E0,3.1E1,1E0,3.619E3,2.092E3,1E0,3E1,1E0,3.618E3,1E0,2.09E3,2E0,1E0,3.617E3,1E0,2.089E3],"tree_param":{"num_deleted":"20","num_feature":"151","num_nodes":"25","size_leaf_vector":"0"}},{"base_weights":[-1.9108093E-1,-1.7977878E-1,-1.9959225E-1,-1.7986214E-1,-1.219346E-2,-1.9962583E-1,-8.466177E-3,-1.799357E-1,-1.4350641E-2,-8.8125225E-3,-1.9965827E-1,-7.277259E-3,-1.7997485E-1,-8.03267E-3,-1.8001087E-1,-8.14877E-3,-1.8004642E-1],"default_left":[true,true,true,true,true,true,true,true,true,true,true,true,true,true,true,true,true],"id":21,"leaf_child_counts":[0,0,0,0,0,0,0,0,0,0,0,0,0,0,0,0,0],"left_children":[1,-1,-1,-1,-1,-1,-1,-1,-1,-1,-1,-1,-1,-1,-1,-1,-1],"loss_changes":[2.0103455E-1,1.4381409E-2,3.8833618E-3,5.874634E-3,0E0,2.4490356E-3,0E0,4.4784546E-3,0E0,0E0,0E0,0E0,1.6708374E-3,0E0,1.2359619E-3,0E0,0E0],"parents":[2147483647,0,0,1,1,2,2,3,3,5,5,7,7,12,12,14,14],"right_children":[2,-1,-1,-1,-1,-1,-1,-1,-1,-1,-1,-1,-1,-1,-1,-1,-1],"split_conditions":[1.295E0,-5.5876956E-3,-6.203517E-3,-5.590286E-3,-3.7898432E-4,-6.2045604E-3,-2.631368E-4,-5.5925725E-3,-4.4603154E-4,-2.7390156E-4,-6.205569E-3,-2.2618413E-4,-5.5937893E-3,-2.4966302E-4,-5.5949087E-3,-2.5327152E-4,-5.5960137E-3],"split_indices":[84,1,38,2147483647,2147483647,2147483647,2147483647,2147483647,2147483647,2147483647,2147483647,2147483647,2147483647,2147483647,2147483647,2147483647,2147483647],"sum_hessian":[5.762E3,2.569E3,3.193E3,2.567E3,2E0,3.192E3,1E0,2.565E3,2E0,1E0,3.191E3,1E0,2.564E3,1E0,2.563E3,1E0,2.562E3],"tree_param":{"num_deleted":"14","num_feature":"151","num_nodes":"17","size_leaf_vector":"0"}},{"base_weights":[-1.8514323E-1,-1.6604717E-1,-1.8943295E-1,-1.661629E-1,-3.1828596E-3,-1.896053E-1,-4.8097078E-2,-1.6626477E-1,-4.649901E-3,-1.8964972E-1,-1.4641882E-2,-1.6641779E-1,-1.3409223E-2,-7.6347613E-3,-1.8967278E-1,-1.664984E-1,-6.915858E-3,-1.6677274E-1,-2.5706114E-2],"default_left":[true,true,true,true,true,true,false,true,true,true,true,true,true,true,true,true,true,true,true],"id":22,"leaf_child_counts":[0,0,0,0,0,0,0,0,0,0,0,0,0,0,0,0,0,0,0],"left_children":[1,-1,5,-1,-1,-1,-1,-1,-1,-1,-1,-1,-1,-1,-1,-1,-1,-1,-1],"loss_changes":[1.6149902E-1,1.6206741E-2,2.2888184E-2,1.10569E-2,0E0,8.544922E-3,0E0,4.518509E-3,0E0,5.142212E-3,0E0,3.1986237E-3,0E0,0E0,0E0,1.4038086E-3,0E0,0E0,0E0],"parents":[2147483647,0,0,1,1,2,2,3,3,5,5,7,7,9,9,11,11,15,15],"right_children":[2,-1,6,-1,-1,-1,-1,-1,-1,-1,-1,-1,-1,-1,-1,-1,-1,-1,-1],"split_conditions":[2.4999999E-2,-5.160904E-3,4.4E0,-5.164501E-3,-9.89263E-5,-5.8931126E-3,-1.4949029E-3,-5.1676673E-3,-1.4452334E-4,-5.8944933E-3,-4.550836E-4,-5.172423E-3,-4.167714E-4,-2.3729564E-4,-5.8952104E-3,-5.1749283E-3,-2.1495143E-4,-5.183455E-3,-7.9897046E-4],"split_indices":[84,25,5,2147483647,2147483647,38,0,2147483647,2147483647,2147483647,2147483647,2147483647,2147483647,2147483647,2147483647,2147483647,2147483647,2147483647,2147483647],"sum_hessian":[5.752E3,1.127E3,4.625E3,1.126E3,1E0,4.616E3,9E0,1.125E3,1E0,4.614E3,2E0,1.123E3,2E0,1E0,4.613E3,1.122E3,1E0,1.118E3,4E0],"tree_param":{"num_deleted":"14","num_feature":"151","num_nodes":"19","size_leaf_vector":"0"}},{"base_weights":[-1.792575E-1,-1.688725E-1,-1.8746947E-1,-1.6897516E-1,-1.8240606E-2,-1.8757848E-1,-1.7152617E-2,-1.6904663E-1,-1.2539714E-2,-1.8761283E-1,-7.353416E-3,3.210661E-3,-2.1537751E-2,-7.0926575E-3,-1.6908139E-1,-7.699762E-3,-1.8764602E-1,-7.726301E-3,-1.6911358E-1],"default_left":[true,true,true,true,true,true,true,true,true,true,true,true,true,true,true,true,true,true,true],"id":23,"leaf_child_counts":[0,0,0,0,0,0,0,0,0,0,0,0,0,0,0,0,0,0,0],"left_children":[1,-1,5,-1,-1,-1,-1,-1,-1,-1,-1,-1,-1,-1,-1,-1,-1,-1,-1],"loss_changes":[1.8025208E-1,1.0566711E-2,2.6481628E-2,8.682251E-3,0E0,5.783081E-3,1.8318796E-3,3.0593872E-3,0E0,4.4403076E-3,0E0,0E0,0E0,0E0,8.392334E-4,0E0,0E0,0E0,0E0],"parents":[2147483647,0,0,1,1,2,2,3,3,5,5,6,6,7,7,9,9,14,14],"right_children":[2,-1,6,-1,-1,-1,-1,-1,-1,-1,-1,-1,-1,-1,-1,-1,-1,-1,-1],"split_conditions":[1.365E0,-5.248718E-3,5E-1,-5.2519087E-3,-5.669354E-4,-5.8301175E-3,-5.331196E-4,-5.25413E-3,-3.8974622E-4,-5.8311853E-3,-2.2855116E-4,9.979039E-5,-6.6941377E-4,-2.2044653E-4,-5.25521E-3,-2.3931592E-4,-5.8322162E-3,-2.4014077E-4,-5.2562105E-3],"split_indices":[84,38,140,2147483647,2147483647,38,2,2147483647,2147483647,2147483647,2147483647,2147483647,2147483647,2147483647,2147483647,2147483647,2147483647,2147483647,2147483647],"sum_hessian":[5.768E3,2.641E3,3.127E3,2.638E3,3E0,3.124E3,3E0,2.636E3,2E0,3.123E3,1E0,1E0,2E0,1E0,2.635E3,1E0,3.122E3,1E0,2.634E3],"tree_param":{"num_deleted":"14","num_feature":"151","num_nodes":"19","size_leaf_vector":"0"}},{"base_weights":[-1.7407191E-1,-1.7691016E-1,-1.475931E-1,-1.778102E-1,-1.1149952E-1,-5.938805E-2,-1.4940359E-1,-1.778642E-1,-6.7737214E-3,-1.14851214E-1,-9.712719E-3,-1.4956471E-1,-4.8380634E-3,-1.7789435E-1,-2.2252847E-3,-1.161031E-1,1.4743774E-5,-1.2715725E-2,-1.4981215E-1,-1.7793135E-1,-1.4089287E-2,-4.7721495E-3,-1.1680988E-1,-6.5610865E-3,-1.4994343E-1,-1.7795081E-1,-7.252983E-3,-1.17526166E-1,-4.823613E-3,-6.6098305E-3,-1.5007426E-1],"default_left":[true,true,true,false,true,true,true,false,false,false,false,true,true,true,false,true,true,true,true,true,true,true,true,true,true,true,true,true,true,true,true],"id":24,"leaf_child_counts":[0,0,0,0,0,0,0,0,0,0,0,0,0,0,0,0,0,0,0,0,0,0,0,0,0,0,0,0,0,0,0],"left_children":[1,3,-1,7,9,-1,-1,13,-1,-1,-1,-1,-1,-1,-1,-1,-1,-1,-1,-1,-1,-1,-1,-1,-1,-1,-1,-1,-1,-1,-1],"loss_changes":[1.7799377E-1,1.09680176E-1,1.1568069E-2,3.5202026E-2,2.2037268E-2,0E0,6.8769455E-3,2.3086548E-2,0E0,1.3371587E-2,0E0,1.543045E-3,0E0,6.149292E-3,0E0,1.7267466E-3,0E0,0E0,1.5516281E-3,4.1656494E-3,0E0,0E0,1.693368E-3,0E0,1.420021E-3,0E0,0E0,0E0,0E0,0E0,0E0],"parents":[2147483647,0,0,1,1,2,2,3,3,4,4,6,6,7,7,9,9,11,11,13,13,15,15,18,18,19,19,22,22,24,24],"right_children":[2,4,-1,8,10,-1,-1,14,-1,-1,-1,-1,-1,-1,-1,-1,-1,-1,-1,-1,-1,-1,-1,-1,-1,-1,-1,-1,-1,-1,-1],"split_conditions":[5E-1,3.5000002E-1,-4.5873336E-3,6.4E0,3.99E0,-1.845837E-3,-4.6436056E-3,1.04185E3,-2.105337E-4,-3.569685E-3,-3.0188056E-4,-4.6486133E-3,-1.503716E-4,-5.5291257E-3,-6.9163965E-5,-3.6085946E-3,4.582505E-7,-3.9521683E-4,-4.6563037E-3,-5.5302754E-3,-4.3790843E-4,-1.4832294E-4,-3.6305622E-3,-2.039248E-4,-4.6603843E-3,-5.5308803E-3,-2.254296E-4,-3.6528248E-3,-1.4992247E-4,-2.054398E-4,-4.6644504E-3],"split_indices":[93,36,27,19,147,2147483647,2147483647,25,0,24,0,2147483647,2147483647,57,0,2147483647,2147483647,2147483647,2147483647,2147483647,2147483647,2147483647,2147483647,2147483647,2147483647,2147483647,2147483647,2147483647,2147483647,2147483647,2147483647],"sum_hessian":[5.788E3,5.177E3,6.11E2,5.09E3,8.7E1,1.9E1,5.92E2,5.088E3,2E0,8.3E1,4E0,5.91E2,1E0,5.087E3,1E0,8.2E1,1E0,2E0,5.89E2,5.085E3,2E0,1E0,8.1E1,1E0,5.88E2,5.084E3,1E0,8E1,1E0,1E0,5.87E2],"tree_param":{"num_deleted":"20","num_feature":"151","num_nodes":"31","size_leaf_vector":"0"}},{"base_weights":[-1.6844429E-1,-1.5826432E-1,-1.7619029E-1,-1.5911931E-1,-7.854909E-2,-7.996402E-3,-1.762184E-1,-1.5922037E-1,-5.175345E-3,-8.03428E-2,3.4311763E-4,-6.1878455E-3,-1.5925658E-1,-8.124553E-2,-3.6645571E-3,-1.5928799E-1,-7.3148296E-3,-8.3074875E-2,-7.0816837E-3,-1.5934837E-1,-1.3931755E-2],"default_left":[true,true,false,true,true,true,true,true,false,true,true,true,true,true,true,true,true,true,true,true,true],"id":25,"leaf_child_counts":[0,0,0,0,0,0,0,0,0,0,0,0,0,0,0,0,0,0,0,0,0],"left_children":[1,3,-1,7,-1,-1,-1,-1,-1,-1,-1,-1,-1,-1,-1,-1,-1,-1,-1,-1,-1],"loss_changes":[1.7784119E-1,5.2459717E-2,1.1062622E-3,3.1433105E-2,6.904781E-3,0E0,0E0,4.348755E-3,0E0,2.3633242E-4,0E0,0E0,6.1798096E-4,2.8058887E-4,0E0,3.7384033E-4,0E0,0E0,0E0,0E0,0E0],"parents":[2147483647,0,0,1,1,2,2,3,3,4,4,7,7,9,9,12,12,13,13,15,15],"right_children":[2,4,-1,8,-1,-1,-1,-1,-1,-1,-1,-1,-1,-1,-1,-1,-1,-1,-1,-1,-1],"split_conditions":[1.365E0,6.45E0,-5.4761614E-3,5.6000004E0,-2.4413802E-3,-2.4853577E-4,-5.4770354E-3,-4.9487203E-3,-1.6085464E-4,-2.4971305E-3,1.0664422E-5,-1.9232412E-4,-4.949846E-3,-2.5251883E-3,-1.1389792E-4,-4.950822E-3,-2.2735185E-4,-2.582046E-3,-2.2010546E-4,-4.9526985E-3,-4.3301217E-4],"split_indices":[84,58,49,57,2,2147483647,2147483647,46,0,2147483647,2147483647,2147483647,2147483647,2147483647,2147483647,2147483647,2147483647,2147483647,2147483647,2147483647,2147483647],"sum_hessian":[5.736E3,2.57E3,3.166E3,2.533E3,3.7E1,1E0,3.165E3,2.531E3,2E0,3.6E1,1E0,1E0,2.53E3,3.5E1,1E0,2.529E3,1E0,3.3E1,2E0,2.527E3,2E0],"tree_param":{"num_deleted":"14","num_feature":"151","num_nodes":"21","size_leaf_vector":"0"}},{"base_weights":[-1.6333468E-1,-1.4570524E-1,-1.6721608E-1,-7.270207E-2,-1.4727016E-1,-1.6763933E-1,-7.906101E-2,-7.6973334E-2,-8.995916E-3,-1.4738435E-1,-2.2041257E-3,-1.6768669E-1,-9.846688E-3,-5.546282E-3,-7.936297E-2,-9.355637E-3,-4.0162666E-4,-1.474765E-1,-4.412595E-3,-1.6773358E-1,-1.004677E-2,-5.683873E-3,-1.4755599E-1,-6.2828204E-3,-1.4762959E-1],"default_left":[true,true,true,false,true,true,false,true,true,true,true,false,false,true,true,true,true,true,true,false,false,true,true,true,true],"id":26,"leaf_child_counts":[0,0,0,0,0,0,0,0,0,0,0,0,0,0,0,0,0,0,0,0,0,0,0,0,0],"left_children":[1,3,5,-1,-1,11,-1,-1,-1,-1,-1,19,-1,-1,-1,-1,-1,-1,-1,-1,-1,-1,-1,-1,-1],"loss_changes":[1.5280151E-1,2.1566391E-2,4.244995E-2,4.830405E-3,1.4698029E-2,1.8173218E-2,0E0,2.2898167E-3,5.7930592E-6,7.8048706E-3,0E0,1.7456055E-2,0E0,0E0,0E0,0E0,0E0,3.8814545E-3,0E0,0E0,0E0,0E0,2.0523071E-3,0E0,0E0],"parents":[2147483647,0,0,1,1,2,2,3,3,4,4,5,5,7,7,8,8,9,9,11,11,17,17,22,22],"right_children":[2,4,6,-1,-1,12,-1,-1,-1,-1,-1,20,-1,-1,-1,-1,-1,-1,-1,-1,-1,-1,-1,-1,-1],"split_conditions":[2.4999999E-2,-2.05E1,7.5E-1,-2.2596496E-3,-4.5772963E-3,3.65E0,-2.4572914E-3,-2.3924042E-3,-2.796016E-4,-4.5808456E-3,-6.850632E-5,4.55E1,-3.060444E-4,-1.7238372E-4,-2.4666765E-3,-2.907821E-4,-1.24829385E-5,-4.5837094E-3,-1.3714765E-4,-5.213319E-3,-3.1226315E-4,-1.7666016E-4,-4.58618E-3,-1.9527602E-4,-4.588468E-3],"split_indices":[84,53,36,55,25,37,0,2147483647,2147483647,2147483647,2147483647,54,0,2147483647,2147483647,2147483647,2147483647,2147483647,2147483647,0,0,2147483647,2147483647,2147483647,2147483647],"sum_hessian":[5.738E3,1.104E3,4.634E3,3.3E1,1.071E3,4.603E3,3.1E1,2.9E1,4E0,1.07E3,1E0,4.601E3,2E0,2E0,2.7E1,3E0,1E0,1.069E3,1E0,4.599E3,2E0,1E0,1.068E3,1E0,1.067E3],"tree_param":{"num_deleted":"14","num_feature":"151","num_nodes":"25","size_leaf_vector":"0"}},{"base_weights":[-1.5834847E-1,-1.4681876E-1,-1.6455601E-1,-9.1170676E-2,-1.481841E-1,-1.6458964E-1,-3.8670264E-3,-9.46344E-2,-8.344292E-3,-1.4824755E-1,-1.7830619E-3,-4.1264803E-3,-1.6462253E-1,-1.194073E-3,-9.578655E-2,-8.828947E-3,-1.9376357E-4,-8.937047E-3,-1.4834145E-1,-5.6115594E-3,-1.64651E-1,-3.5336232E-3,-9.6607685E-2,-1.4839597E-1,-3.481277E-3,-7.013084E-3,-1.646753E-1,-1.484816E-1,-1.0394155E-2,-1.647599E-1,-2.5315678E-2],"default_left":[true,true,true,false,true,true,true,true,true,true,true,true,true,true,true,true,true,true,true,true,true,true,true,true,true,true,true,true,true,true,true],"id":27,"leaf_child_counts":[0,0,0,0,0,0,0,0,0,0,0,0,0,0,0,0,0,0,0,0,0,0,0,0,0,0,0,0,0,0,0],"left_children":[1,3,-1,-1,-1,-1,-1,-1,-1,-1,-1,-1,-1,-1,-1,-1,-1,-1,-1,-1,-1,-1,-1,-1,-1,-1,-1,-1,-1,-1,-1],"loss_changes":[1.716156E-1,2.596283E-2,1.3412476E-2,1.3971806E-2,1.625824E-2,1.2512207E-2,0E0,6.6084266E-3,3.7906284E-5,1.3465881E-2,0E0,0E0,7.3623657E-3,0E0,1.9989014E-3,0E0,0E0,0E0,1.0917664E-2,0E0,2.5405884E-3,0E0,0E0,8.716583E-3,0E0,0E0,1.7318726E-3,0E0,0E0,0E0,0E0],"parents":[2147483647,0,0,1,1,2,2,3,3,4,4,5,5,7,7,8,8,9,9,12,12,14,14,18,18,20,20,23,23,26,26],"right_children":[2,4,-1,-1,-1,-1,-1,-1,-1,-1,-1,-1,-1,-1,-1,-1,-1,-1,-1,-1,-1,-1,-1,-1,-1,-1,-1,-1,-1,-1,-1],"split_conditions":[4.5E0,6.55E1,-5.114557E-3,-2.8336712E-3,-4.6057026E-3,-5.1156026E-3,-1.2019085E-4,-2.941327E-3,-2.593485E-4,-4.6076747E-3,-5.541926E-5,-1.2825493E-4,-5.1166248E-3,-3.7112924E-5,-2.977137E-3,-2.7441207E-4,-6.0223556E-6,-2.777719E-4,-4.610593E-3,-1.7441259E-4,-5.1175095E-3,-1.0982837E-4,-3.0026587E-3,-4.612288E-3,-1.082014E-4,-2.1797331E-4,-5.118265E-3,-4.614949E-3,-3.230602E-4,-5.1208944E-3,-7.868353E-4],"split_indices":[89,3,101,55,25,2147483647,2147483647,2147483647,2147483647,2147483647,2147483647,2147483647,2147483647,2147483647,2147483647,2147483647,2147483647,2147483647,2147483647,2147483647,2147483647,2147483647,2147483647,2147483647,2147483647,2147483647,2147483647,2147483647,2147483647,2147483647,2147483647],"sum_hessian":[5.72E3,2.087E3,3.633E3,6.6E1,2.021E3,3.632E3,1E0,6.2E1,4E0,2.02E3,1E0,1E0,3.631E3,1E0,6.1E1,3E0,1E0,2E0,2.018E3,1E0,3.63E3,1E0,6E1,2.017E3,1E0,1E0,3.629E3,2.015E3,2E0,3.625E3,4E0],"tree_param":{"num_deleted":"26","num_feature":"151","num_nodes":"31","size_leaf_vector":"0"}},{"base_weights":[-1.5337083E-1,-1.4394026E-1,-1.6083984E-1,-1.449266E-1,-8.121262E-2,-1.608843E-1,-2.1417155E-3,-1.449775E-1,-1.3593853E-3,-8.360756E-2,-1.4019859E-3,-1.6092086E-1,-4.406102E-3,-1.4507447E-1,-1.4551002E-2,-1.0131533E-3,-8.482007E-2,-2.9433926E-3,1.4124388E-3,-5.2010296E-3,-1.6095462E-1,-5.0828955E-3,-1.4510965E-1,-8.571216E-2,-2.9714461E-3,-1.6098759E-1,-5.439547E-3,-5.7165367E-3,-1.4514217E-1,-8.64671E-2,-3.8656706E-3,-1.6101497E-1,-7.0264186E-3],"default_left":[true,true,true,true,false,true,false,true,true,true,true,true,true,true,true,true,true,true,true,true,true,true,true,true,true,true,true,true,true,true,true,true,true],"id":28,"leaf_child_counts":[0,0,0,0,0,0,0,0,0,0,0,0,0,0,0,0,0,0,0,0,0,0,0,0,0,0,0,0,0,0,0,0,0],"left_children":[1,3,5,-1,-1,-1,-1,-1,-1,-1,-1,-1,-1,-1,-1,-1,-1,-1,-1,-1,-1,-1,-1,-1,-1,-1,-1,-1,-1,-1,-1,-1,-1],"loss_changes":[1.7260742E-1,4.535675E-2,1.8440247E-2,1.6746521E-2,1.08602345E-2,1.0688782E-2,0E0,1.1501312E-2,0E0,5.247712E-3,9.253422E-5,8.003235E-3,0E0,5.2986145E-3,0E0,0E0,1.8575788E-3,0E0,0E0,0E0,7.194519E-3,0E0,3.3798218E-3,3.3825636E-4,0E0,1.8615723E-3,0E0,0E0,0E0,0E0,0E0,0E0,0E0],"parents":[2147483647,0,0,1,1,2,2,3,3,4,4,5,5,7,7,9,9,10,10,11,11,13,13,16,16,20,20,22,22,23,23,25,25],"right_children":[2,4,6,-1,-1,-1,-1,-1,-1,-1,-1,-1,-1,-1,-1,-1,-1,-1,-1,-1,-1,-1,-1,-1,-1,-1,-1,-1,-1,-1,-1,-1,-1],"split_conditions":[1.365E0,5.25E0,5E-1,-4.504456E-3,-2.5241652E-3,-5.000437E-3,-6.656655E-5,-4.5060385E-3,-4.2250987E-5,-2.5986026E-3,-4.357505E-5,-5.0015734E-3,-1.3694583E-4,-4.5090523E-3,-4.5225894E-4,-3.148977E-5,-2.6362883E-3,-9.148344E-5,4.389994E-5,-1.6165295E-4,-5.0026225E-3,-1.5798122E-4,-4.510146E-3,-2.6640152E-3,-9.235537E-5,-5.003647E-3,-1.6906629E-4,-1.7767539E-4,-4.5111566E-3,-2.6874796E-3,-1.2014872E-4,-5.004498E-3,-2.1838777E-4],"split_indices":[84,58,136,57,25,5,0,2147483647,2147483647,2147483647,2147483647,2147483647,2147483647,2147483647,2147483647,2147483647,2147483647,2147483647,2147483647,2147483647,2147483647,2147483647,2147483647,2147483647,2147483647,2147483647,2147483647,2147483647,2147483647,2147483647,2147483647,2147483647,2147483647],"sum_hessian":[5.685E3,2.601E3,3.084E3,2.548E3,5.3E1,3.083E3,1E0,2.547E3,1E0,5.1E1,2E0,3.082E3,1E0,2.544E3,3E0,1E0,5E1,1E0,1E0,1E0,3.081E3,1E0,2.543E3,4.9E1,1E0,3.08E3,1E0,1E0,2.542E3,4.8E1,1E0,3.079E3,1E0],"tree_param":{"num_deleted":"26","num_feature":"151","num_nodes":"33","size_leaf_vector":"0"}},{"base_weights":[-1.4850059E-1,-1.3709056E-1,-1.547757E-1,-1.273532E-1,-1.4788276E-1,-8.229893E-3,-1.5483439E-1,-1.275694E-1,-9.864472E-3,-1.4821598E-1,1.4675566E-3,-1.5492849E-1,-2.0186711E-2,-1.276689E-1,-9.450244E-4,-1.1735936E-2,1.1361918E-3,-1.8670518E-2,-1.4857276E-1,5.5486704E-3,-3.9461143E-3,-1.5496261E-1,-2.936554E-3,-2.3623066E-2,2.2116073E-3,-1.2781045E-1,-7.4773654E-3,-4.6685347E-3,-1.486774E-1,-6.0826116E-3,-1.5498726E-1,-1.278947E-1,-2.6432397E-3,-1.4877863E-1,-4.979559E-3,-1.5501048E-1,-6.566431E-3],"default_left":[true,true,true,true,true,false,false,true,true,true,true,true,true,true,true,true,true,true,true,true,true,true,true,true,true,true,true,true,true,true,true,true,true,true,true,true,true],"id":29,"leaf_child_counts":[0,0,0,0,0,0,0,0,0,0,0,0,0,0,0,0,0,0,0,0,0,0,0,0,0,0,0,0,0,0,0,0,0,0,0,0,0],"left_children":[1,3,5,7,9,-1,-1,-1,-1,-1,-1,-1,-1,-1,-1,-1,-1,-1,-1,-1,-1,-1,-1,-1,-1,-1,-1,-1,-1,-1,-1,-1,-1,-1,-1,-1,-1],"loss_changes":[1.9987488E-1,3.6346436E-2,1.8486023E-2,1.7627716E-2,4.9020767E-2,0E0,1.486969E-2,1.3673782E-2,3.9659615E-4,1.605606E-2,4.7839998E-4,1.4205933E-2,1.5833173E-3,1.0622025E-2,0E0,0E0,0E0,0E0,7.2402954E-3,0E0,0E0,3.929138E-3,0E0,0E0,0E0,9.075165E-3,0E0,0E0,6.2885284E-3,0E0,2.357483E-3,0E0,0E0,0E0,0E0,0E0,0E0],"parents":[2147483647,0,0,1,1,2,2,3,3,4,4,6,6,7,7,8,8,9,9,10,10,11,11,12,12,13,13,18,18,21,21,25,25,28,28,30,30],"right_children":[2,4,6,8,10,-1,-1,-1,-1,-1,-1,-1,-1,-1,-1,-1,-1,-1,-1,-1,-1,-1,-1,-1,-1,-1,-1,-1,-1,-1,-1,-1,-1,-1,-1,-1,-1],"split_conditions":[4.5E0,2.45E-1,-1.66E1,1.038E3,5E-1,-2.557929E-4,-4.8124E-3,-3.9649783E-3,-3.0659715E-4,-4.6066935E-3,4.561305E-5,-4.8153247E-3,-6.274222E-4,-3.9680707E-3,-2.9372257E-5,-3.6476404E-4,3.531392E-5,-5.8029743E-4,-4.6177823E-3,1.7245795E-4,-1.2264898E-4,-4.8163855E-3,-9.1270886E-5,-7.3422736E-4,6.873885E-5,-3.9724703E-3,-2.3240362E-4,-1.451025E-4,-4.6210345E-3,-1.8905335E-4,-4.8171515E-3,-3.9750887E-3,-8.21544E-5,-4.6241814E-3,-1.5476943E-4,-4.817873E-3,-2.0409092E-4],"split_indices":[89,84,37,22,140,0,34,24,1,27,2,2147483647,2147483647,2147483647,2147483647,2147483647,2147483647,2147483647,2147483647,2147483647,2147483647,2147483647,2147483647,2147483647,2147483647,2147483647,2147483647,2147483647,2147483647,2147483647,2147483647,2147483647,2147483647,2147483647,2147483647,2147483647,2147483647],"sum_hessian":[5.707E3,2.105E3,3.602E3,1.173E3,9.32E2,2E0,3.6E3,1.17E3,3E0,9.3E2,2E0,3.596E3,4E0,1.169E3,1E0,2E0,1E0,4E0,9.26E2,1E0,1E0,3.595E3,1E0,3E0,1E0,1.167E3,2E0,1E0,9.25E2,1E0,3.594E3,1.166E3,1E0,9.24E2,1E0,3.593E3,1E0],"tree_param":{"num_deleted":"26","num_feature":"151","num_nodes":"37","size_leaf_vector":"0"}},{"base_weights":[-1.440627E-1,-1.466207E-1,-1.2124165E-1,-1.47703E-1,-1.0304405E-1,-4.722111E-2,-1.2300878E-1,-1.4779855E-1,-1.7703962E-2,-2.2863157E-3,-1.04199514E-1,-4.860892E-2,-5.304085E-4,-1.2316855E-1,-2.2785026E-3,-1.4782701E-1,-5.802873E-4,-1.0537751E-1,-2.3854626E-3,-4.9832985E-2,-1.2206244E-3,-8.454137E-3,-1.2340674E-1,-1.4786842E-1,-7.5627533E-3,-1.062152E-1,2.0093725E-3,6.638372E-4,-3.2687369E-3,-4.0600346E-3,-1.23536296E-1,-1.4789128E-1,-3.153731E-3,-1.5430794E-4,-1.069081E-1,-4.555792E-3,-1.2365745E-1],"default_left":[true,true,true,true,true,false,true,false,false,true,true,true,true,true,true,false,false,true,true,true,true,true,true,true,false,true,true,true,true,true,true,true,true,true,true,true,true],"id":30,"leaf_child_counts":[0,0,0,0,0,0,0,0,0,0,0,0,0,0,0,0,0,0,0,0,0,0,0,0,0,0,0,0,0,0,0,0,0,0,0,0,0],"left_children":[1,3,5,7,-1,-1,-1,15,-1,-1,-1,-1,-1,-1,-1,23,-1,-1,-1,-1,-1,-1,-1,-1,-1,-1,-1,-1,-1,-1,-1,-1,-1,-1,-1,-1,-1],"loss_changes":[1.6036224E-1,9.152222E-2,2.5969505E-2,3.6010742E-2,1.5911698E-2,1.7458722E-3,9.109497E-3,1.9989014E-2,0E0,0E0,1.6093493E-2,1.1322796E-3,0E0,6.503105E-3,0E0,1.7845154E-2,0E0,1.5858531E-2,5.3391268E-5,0E0,0E0,0E0,4.5251846E-3,1.184082E-2,0E0,1.0998011E-2,0E0,0E0,0E0,0E0,3.2596588E-3,0E0,0E0,0E0,0E0,0E0,0E0],"parents":[2147483647,0,0,1,1,2,2,3,3,4,4,5,5,6,6,7,7,10,10,11,11,13,13,15,15,17,17,18,18,22,22,23,23,25,25,30,30],"right_children":[2,4,6,8,-1,-1,-1,16,-1,-1,-1,-1,-1,-1,-1,24,-1,-1,-1,-1,-1,-1,-1,-1,-1,-1,-1,-1,-1,-1,-1,-1,-1,-1,-1,-1,-1],"split_conditions":[5E-1,5E-1,7.4E1,7.25E0,-3.2027068E-3,-1.467677E-3,-3.8232298E-3,1.04175E3,-5.5025594E-4,-7.1060866E-5,-3.2386198E-3,-1.5108115E-3,-1.6485601E-5,-3.8281956E-3,-7.081802E-5,4.55E1,-1.803588E-5,-3.275233E-3,-7.4142445E-5,-1.5488565E-3,-3.7938167E-5,-2.627626E-4,-3.8355987E-3,-4.595891E-3,-2.3505755E-4,-3.3012694E-3,6.2453204E-5,2.063269E-5,-1.0159545E-4,-1.2618973E-4,-3.8396255E-3,-4.5966017E-3,-9.802096E-5,-4.7960375E-6,-3.3228053E-3,-1.4159834E-4,-3.843391E-3],"split_indices":[93,92,27,16,16,9,85,25,0,2147483647,2147483647,2147483647,2147483647,2147483647,2147483647,54,0,2147483647,2147483647,2147483647,2147483647,2147483647,2147483647,57,0,2147483647,2147483647,2147483647,2147483647,2147483647,2147483647,2147483647,2147483647,2147483647,2147483647,2147483647,2147483647],"sum_hessian":[5.743E3,5.116E3,6.27E2,4.969E3,1.47E2,2.1E1,6.06E2,4.964E3,5E0,2E0,1.45E2,2E1,1E0,6.05E2,1E0,4.963E3,1E0,1.43E2,2E0,1.9E1,1E0,2E0,6.03E2,4.961E3,2E0,1.42E2,1E0,1E0,1E0,1E0,6.02E2,4.96E3,1E0,1E0,1.41E2,1E0,6.01E2],"tree_param":{"num_deleted":"24","num_feature":"151","num_nodes":"37","size_leaf_vector":"0"}},{"base_weights":[-1.3950166E-1,-1.418598E-1,-1.1755339E-1,-1.4304954E-1,-1.01255655E-1,-4.5801695E-2,-1.194438E-1,-1.4314066E-1,-1.7518945E-2,-1.7467225E-3,-1.022719E-1,-4.7146115E-2,-3.9539798E-4,-1.1960938E-1,-1.9268068E-3,-1.4316808E-1,-5.7862874E-4,-1.0298769E-1,2.3039875E-3,-4.8329365E-2,-1.0856139E-3,-7.6568224E-3,-1.1985956E-1,-1.4321499E-1,-1.5193292E-2,-1.03628874E-1,9.5845223E-4,-3.893072E-3,-1.19990565E-1,-5.217148E-3,-1.4323235E-1,-6.929958E-4,-1.0417528E-1,-4.4328454E-3,-1.20112084E-1],"default_left":[true,true,true,true,true,false,true,false,false,true,true,true,true,true,true,false,false,true,true,true,true,true,true,true,true,true,true,true,true,true,true,true,true,true,true],"id":31,"leaf_child_counts":[0,0,0,0,0,0,0,0,0,0,0,0,0,0,0,0,0,0,0,0,0,0,0,0,0,0,0,0,0,0,0,0,0,0,0],"left_children":[1,3,5,7,-1,-1,-1,15,-1,-1,-1,-1,-1,-1,-1,-1,-1,-1,-1,-1,-1,-1,-1,-1,-1,-1,-1,-1,-1,-1,-1,-1,-1,-1,-1],"loss_changes":[1.3428497E-1,1.0662842E-1,2.980709E-2,3.238678E-2,1.6527295E-2,1.7615557E-3,9.320259E-3,1.8692017E-2,0E0,0E0,1.5731454E-2,1.1646003E-3,0E0,7.6026917E-3,0E0,8.476257E-3,0E0,1.2835264E-2,0E0,0E0,0E0,0E0,4.3964386E-3,4.562378E-3,0E0,9.235263E-3,0E0,0E0,3.0555725E-3,0E0,0E0,0E0,0E0,0E0,0E0],"parents":[2147483647,0,0,1,1,2,2,3,3,4,4,5,5,6,6,7,7,10,10,11,11,13,13,15,15,17,17,22,22,23,23,25,25,28,28],"right_children":[2,4,6,8,-1,-1,-1,16,-1,-1,-1,-1,-1,-1,-1,-1,-1,-1,-1,-1,-1,-1,-1,-1,-1,-1,-1,-1,-1,-1,-1,-1,-1,-1,-1],"split_conditions":[5E-1,5E-1,7.45E1,6.3E0,-3.147122E-3,-1.4235602E-3,-3.7124266E-3,1.04185E3,-5.445054E-4,-5.4289794E-5,-3.1787078E-3,-1.4653461E-3,-1.2289344E-5,-3.7175731E-3,-5.9886985E-5,-4.4497997E-3,-1.798433E-5,-3.2009552E-3,7.161012E-5,-1.5021226E-3,-3.374191E-5,-2.3798132E-4,-3.725349E-3,-4.4512576E-3,-4.7222196E-4,-3.220884E-3,2.9789606E-5,-1.21000376E-4,-3.7294207E-3,-1.6215391E-4,-4.4517973E-3,-2.1538968E-5,-3.2378666E-3,-1.3777705E-4,-3.7331977E-3],"split_indices":[93,92,27,1,16,9,85,25,0,2147483647,2147483647,2147483647,2147483647,2147483647,2147483647,54,0,2147483647,2147483647,2147483647,2147483647,2147483647,2147483647,2147483647,2147483647,2147483647,2147483647,2147483647,2147483647,2147483647,2147483647,2147483647,2147483647,2147483647,2147483647],"sum_hessian":[5.765E3,5.157E3,6.08E2,4.986E3,1.71E2,2.2E1,5.86E2,4.981E3,5E0,2E0,1.69E2,2.1E1,1E0,5.85E2,1E0,4.98E3,1E0,1.68E2,1E0,2E1,1E0,2E0,5.83E2,4.977E3,3E0,1.67E2,1E0,1E0,5.82E2,1E0,4.976E3,1E0,1.66E2,1E0,5.81E2],"tree_param":{"num_deleted":"24","num_feature":"151","num_nodes":"35","size_leaf_vector":"0"}},{"base_weights":[-1.3503635E-1,-1.2451296E-1,-1.4076383E-1,-7.745791E-2,-1.2608199E-1,-5.271799E-2,-1.4108081E-1,1.2479544E-3,-7.843803E-2,-1.2617132E-1,-5.965523E-3,-5.4049246E-2,-1.4363994E-3,-1.4111465E-1,-1.6617547E-3,4.2980927E-4,-7.934267E-2,-1.2622502E-1,-1.5853039E-3,-2.1490024E-3,-1.4114706E-1,-1.6617478E-3,-8.0017015E-2,-1.2843644E-2,-1.2633035E-1,-1.4123173E-1,-1.8545462E-2,-8.06935E-2,-1.7681235E-3,-8.408958E-3,-1.2640586E-1,-4.8078126E-3,-1.4125624E-1,-2.2931008E-2,3.4864065E-3],"default_left":[true,true,false,true,true,true,true,true,true,true,true,true,true,true,true,true,true,true,true,true,true,true,true,true,true,true,true,true,true,true,true,true,true,true,true],"id":32,"leaf_child_counts":[0,0,0,0,0,0,0,0,0,0,0,0,0,0,0,0,0,0,0,0,0,0,0,0,0,0,0,0,0,0,0,0,0,0,0],"left_children":[1,3,5,-1,-1,-1,-1,-1,-1,-1,-1,-1,-1,-1,-1,-1,-1,-1,-1,-1,-1,-1,-1,-1,-1,-1,-1,-1,-1,-1,-1,-1,-1,-1,-1],"loss_changes":[1.742096E-1,5.9818268E-2,2.859497E-2,8.2075E-3,1.4373779E-2,1.2046397E-3,1.4839172E-2,0E0,6.9627166E-3,1.1604309E-2,0E0,0E0,0E0,1.3374329E-2,0E0,0E0,3.5000443E-3,8.213043E-3,0E0,0E0,1.1871338E-2,0E0,3.401816E-3,0E0,7.549286E-3,5.4397583E-3,2.1293634E-3,0E0,0E0,0E0,0E0,0E0,0E0,0E0,0E0],"parents":[2147483647,0,0,1,1,2,2,3,3,4,4,5,5,6,6,8,8,9,9,13,13,16,16,17,17,20,20,22,22,24,24,25,25,26,26],"right_children":[2,4,6,-1,-1,-1,-1,-1,-1,-1,-1,-1,-1,-1,-1,-1,-1,-1,-1,-1,-1,-1,-1,-1,-1,-1,-1,-1,-1,-1,-1,-1,-1,-1,-1],"split_conditions":[4.5E0,6.75E1,-1.625E1,-2.4074656E-3,-3.918748E-3,-1.6385253E-3,-4.3849256E-3,3.878761E-5,-2.4379285E-3,-3.9215246E-3,-1.8541412E-4,-1.679902E-3,-4.4644657E-5,-4.3859775E-3,-5.1648913E-5,1.335888E-5,-2.4660456E-3,-3.9231936E-3,-4.9272752E-5,-6.6793036E-5,-4.3869847E-3,-5.16487E-5,-2.487005E-3,-3.9919268E-4,-3.926467E-3,-4.389616E-3,-5.7641056E-4,-2.5080305E-3,-5.495496E-5,-2.613584E-4,-3.9288145E-3,-1.4943139E-4,-4.390378E-3,-7.127175E-4,1.0836083E-4],"split_indices":[89,3,39,46,25,1,101,2147483647,2147483647,2147483647,2147483647,2147483647,2147483647,2147483647,2147483647,2147483647,2147483647,2147483647,2147483647,2147483647,2147483647,2147483647,2147483647,2147483647,2147483647,2147483647,2147483647,2147483647,2147483647,2147483647,2147483647,2147483647,2147483647,2147483647,2147483647],"sum_hessian":[5.751E3,2.106E3,3.645E3,8.4E1,2.022E3,1.9E1,3.626E3,1E0,8.3E1,2.02E3,2E0,1.8E1,1E0,3.625E3,1E0,1E0,8.2E1,2.019E3,1E0,1E0,3.624E3,1E0,8.1E1,3E0,2.016E3,3.62E3,4E0,8E1,1E0,2E0,2.014E3,1E0,3.619E3,3E0,1E0],"tree_param":{"num_deleted":"28","num_feature":"151","num_nodes":"35","size_leaf_vector":"0"}},{"base_weights":[-1.3124657E-1,-1.3351232E-1,-1.0998475E-1,-1.3425782E-1,-8.208356E-2,-4.150571E-2,-1.1161479E-1,-1.3434008E-1,-1.7216023E-2,-8.436407E-2,-2.1456517E-3,-4.2979505E-2,9.60374E-5,-1.1178201E-1,-1.2248217E-3,-1.344323E-1,-2.1491092E-2,-1.8986195E-2,6.7499233E-4,-8.55918E-2,2.953972E-3,1.4694154E-3,-3.6720333E-3,-4.4289846E-2,-5.941785E-4,-6.371123E-3,-1.1203451E-1,-1.344787E-1,-1.3170269E-2,-5.562633E-4,-2.4113784E-2,-8.633319E-2,-1.4715729E-3,-2.1025012E-3,-4.5087513E-2,-3.0063537E-3,-1.1217018E-1,-4.4044447E-3,-1.3449588E-1,1.4269495E-4,-7.501286E-4,-5.549474E-3,-8.749558E-2,-3.191087E-3,-1.12302884E-1],"default_left":[true,true,true,true,true,false,true,true,true,true,true,true,true,true,true,false,false,true,true,true,true,true,true,true,true,true,true,true,true,true,true,true,true,true,true,true,true,true,true,true,true,true,true,true,true],"id":33,"leaf_child_counts":[0,0,0,0,0,0,0,0,0,0,0,0,0,0,0,0,0,0,0,0,0,0,0,0,0,0,0,0,0,0,0,0,0,0,0,0,0,0,0,0,0,0,0,0,0],"left_children":[1,3,5,7,-1,-1,-1,15,-1,-1,-1,-1,-1,-1,-1,-1,-1,-1,-1,-1,-1,-1,-1,-1,-1,-1,-1,-1,-1,-1,-1,-1,-1,-1,-1,-1,-1,-1,-1,-1,-1,-1,-1,-1,-1],"loss_changes":[1.3162231E-1,8.835602E-2,2.2236347E-2,2.58255E-2,1.6237259E-2,1.8722005E-3,9.518623E-3,2.4017334E-2,5.974611E-4,1.2773395E-2,1.2428118E-4,1.343701E-3,0E0,8.601189E-3,0E0,1.0887146E-2,7.389933E-4,0E0,0E0,4.662633E-3,0E0,0E0,0E0,2.1755695E-6,0E0,0E0,5.338192E-3,5.41687E-3,0E0,2.6651082E-6,0E0,4.0218234E-3,0E0,0E0,0E0,0E0,4.9204826E-3,0E0,0E0,0E0,0E0,0E0,0E0,0E0,0E0],"parents":[2147483647,0,0,1,1,2,2,3,3,4,4,5,5,6,6,7,7,8,8,9,9,10,10,11,11,13,13,15,15,16,16,19,19,23,23,26,26,27,27,29,29,31,31,36,36],"right_children":[2,4,6,8,-1,-1,-1,16,-1,-1,-1,-1,-1,-1,-1,-1,-1,-1,-1,-1,-1,-1,-1,-1,-1,-1,-1,-1,-1,-1,-1,-1,-1,-1,-1,-1,-1,-1,-1,-1,-1,-1,-1,-1,-1],"split_conditions":[5E-1,1.5E-1,7.45E1,4.1499996E0,-2.551235E-3,-1.2900368E-3,-3.469094E-3,3.0500002E0,-5.3509034E-4,-2.6221154E-3,-6.6688895E-5,-1.3358438E-3,2.9849336E-6,-3.474291E-3,-3.806862E-5,-4.1782837E-3,-6.679635E-4,-5.90109E-4,2.0979403E-5,-2.6602745E-3,9.181225E-5,4.5670826E-5,-1.14130286E-4,-1.3765704E-3,-1.8467632E-5,-1.9802056E-4,-3.482139E-3,-4.179726E-3,-4.0934447E-4,-1.7289192E-5,-7.494793E-4,-2.6833178E-3,-4.5737885E-5,-6.534773E-5,-1.4013627E-3,-9.344033E-5,-3.4863558E-3,-1.3689432E-4,-4.18026E-3,4.4350945E-6,-2.331471E-5,-1.7248293E-4,-2.7194459E-3,-9.918201E-5,-3.4904804E-3],"split_indices":[93,36,27,18,147,9,85,56,4,2147483647,2147483647,2147483647,2147483647,2147483647,2147483647,54,29,2147483647,2147483647,2147483647,2147483647,2147483647,2147483647,2147483647,2147483647,2147483647,2147483647,2147483647,2147483647,2147483647,2147483647,2147483647,2147483647,2147483647,2147483647,2147483647,2147483647,2147483647,2147483647,2147483647,2147483647,2147483647,2147483647,2147483647,2147483647],"sum_hessian":[5.731E3,5.132E3,5.99E2,5.043E3,8.9E1,2E1,5.79E2,5.038E3,5E0,8.6E1,3E0,1.9E1,1E0,5.78E2,1E0,5.032E3,6E0,4E0,1E0,8.5E1,1E0,1E0,2E0,1.8E1,1E0,2E0,5.76E2,5.029E3,3E0,2E0,4E0,8.4E1,1E0,1E0,1.7E1,1E0,5.75E2,1E0,5.028E3,1E0,1E0,2E0,8.2E1,1E0,5.74E2],"tree_param":{"num_deleted":"34","num_feature":"151","num_nodes":"45","size_leaf_vector":"0"}},{"base_weights":[-1.270064E-1,-1.2937762E-1,-1.0509863E-1,-1.3044585E-1,-9.052483E-2,-4.030344E-2,-1.0694753E-1,-1.305137E-1,-1.3268065E-2,-9.1266155E-2,3.1886578E-3,-4.1641258E-2,2.1470587E-4,-1.0711214E-1,-9.057031E-4,-1.3056083E-1,-1.2196371E-2,-9.220379E-2,-2.1960263E-3,-4.28227E-2,-4.7551002E-4,-6.0671377E-3,-1.0735404E-1,-1.30583E-1,-1.8654767E-3,1.0356281E-3,-9.2827536E-2,-4.102139E-3,1.7041012E-3,-1.9838328E-3,-4.3534327E-2,-1.4573227E-2,-1.07743286E-1,-3.615294E-2,-1.3070132E-1,-9.343832E-2,7.2421593E-4,-2.8719683E-3,-1.0787457E-1],"default_left":[true,true,true,true,true,false,true,false,false,true,true,true,true,true,true,true,true,true,true,true,true,true,true,true,true,true,true,true,true,true,true,true,true,true,true,true,true,true,true],"id":34,"leaf_child_counts":[0,0,0,0,0,0,0,0,0,0,0,0,0,0,0,0,0,0,0,0,0,0,0,0,0,0,0,0,0,0,0,0,0,0,0,0,0,0,0],"left_children":[1,3,5,7,-1,-1,-1,-1,-1,-1,-1,-1,-1,-1,-1,-1,-1,-1,-1,-1,-1,-1,-1,-1,-1,-1,-1,-1,-1,-1,-1,-1,-1,-1,-1,-1,-1,-1,-1],"loss_changes":[1.6432953E-1,9.688568E-2,3.0994892E-2,2.2514343E-2,1.4673948E-2,1.8700473E-3,9.356976E-3,1.2046814E-2,0E0,1.2104511E-2,0E0,1.3490394E-3,0E0,7.988453E-3,0E0,1.1795044E-2,0E0,1.0653853E-2,1.5725018E-4,4.467368E-5,0E0,0E0,5.7320595E-3,8.94165E-3,0E0,0E0,1.0145783E-2,0E0,0E0,0E0,0E0,0E0,4.981041E-3,0E0,0E0,0E0,0E0,0E0,0E0],"parents":[2147483647,0,0,1,1,2,2,3,3,4,4,5,5,6,6,7,7,9,9,11,11,13,13,15,15,17,17,18,18,19,19,22,22,23,23,26,26,32,32],"right_children":[2,4,6,8,-1,-1,-1,-1,-1,-1,-1,-1,-1,-1,-1,-1,-1,-1,-1,-1,-1,-1,-1,-1,-1,-1,-1,-1,-1,-1,-1,-1,-1,-1,-1,-1,-1,-1,-1],"split_conditions":[5E-1,5E-1,7.65E1,6.05E0,-2.8135977E-3,-1.2526691E-3,-3.3240307E-3,-4.0564896E-3,-4.1238405E-4,-2.8366388E-3,9.910652E-5,-1.2942499E-3,6.6732623E-6,-3.3291471E-3,-2.8150112E-5,-4.0579545E-3,-3.790748E-4,-2.8657813E-3,-6.825458E-5,-1.3309702E-3,-1.47793035E-5,-1.885724E-4,-3.3366655E-3,-4.0586437E-3,-5.798079E-5,3.2188305E-5,-2.885168E-3,-1.2749837E-4,5.2965086E-5,-6.165941E-5,-1.3530883E-3,-4.5294972E-4,-3.3487636E-3,-1.1236677E-3,-4.062321E-3,-2.9041518E-3,2.2509319E-5,-8.926351E-5,-3.3528442E-3],"split_indices":[93,92,27,1,2,9,85,54,0,2147483647,2147483647,2147483647,2147483647,2147483647,2147483647,2147483647,2147483647,2147483647,2147483647,2147483647,2147483647,2147483647,2147483647,2147483647,2147483647,2147483647,2147483647,2147483647,2147483647,2147483647,2147483647,2147483647,2147483647,2147483647,2147483647,2147483647,2147483647,2147483647,2147483647],"sum_hessian":[5.737E3,5.133E3,6.04E2,4.973E3,1.6E2,2.3E1,5.81E2,4.969E3,4E0,1.59E2,1E0,2.2E1,1E0,5.8E2,1E0,4.966E3,3E0,1.57E2,2E0,2.1E1,1E0,2E0,5.78E2,4.965E3,1E0,1E0,1.56E2,1E0,1E0,1E0,2E1,4E0,5.74E2,1E1,4.955E3,1.55E2,1E0,1E0,5.73E2],"tree_param":{"num_deleted":"30","num_feature":"151","num_nodes":"39","size_leaf_vector":"0"}},{"base_weights":[-1.2311218E-1,-1.11419365E-1,-1.274824E-1,-1.1220016E-1,-5.0727725E-2,-1.2785083E-1,-5.449531E-2,-1.12543486E-1,-2.877111E-2,-5.697061E-2,-6.247793E-3,-1.2789774E-1,-5.3938674E-3,-2.5661925E-3,-5.521671E-2,-6.6042216E-3,-1.1263511E-1,-3.0140614E-2,-2.6929184E-4,-5.8942694E-2,5.410181E-4,-9.049859E-3,2.2215284E-3,-3.6469335E-3,-1.2791936E-1,-1.1271611E-1,-8.068069E-3,-1.2793623E-1,-5.4274155E-3,-4.328799E-3,-1.127572E-1,-1.2795253E-1,-5.6511834E-3],"default_left":[true,true,true,true,false,true,true,true,true,true,true,true,true,true,true,true,true,true,true,true,true,true,true,true,true,true,true,true,true,true,true,true,true],"id":35,"leaf_child_counts":[0,0,0,0,0,0,0,0,0,0,0,0,0,0,0,0,0,0,0,0,0,0,0,0,0,0,0,0,0,0,0,0,0],"left_children":[1,3,5,-1,-1,-1,-1,-1,-1,-1,-1,-1,-1,-1,-1,-1,-1,-1,-1,-1,-1,-1,-1,-1,-1,-1,-1,-1,-1,-1,-1,-1,-1],"loss_changes":[1.5346527E-1,2.1623611E-2,4.1877747E-2,1.423645E-2,7.2803423E-3,1.6670227E-2,2.0042062E-5,8.214951E-3,6.95508E-4,4.0429085E-3,5.750879E-4,6.362915E-3,0E0,0E0,0E0,0E0,4.5814514E-3,0E0,0E0,0E0,0E0,0E0,0E0,0E0,1.5945435E-3,2.3040771E-3,0E0,9.994507E-4,0E0,0E0,0E0,0E0,0E0],"parents":[2147483647,0,0,1,1,2,2,3,3,4,4,5,5,6,6,7,7,8,8,9,9,10,10,11,11,16,16,24,24,25,25,27,27],"right_children":[2,4,6,-1,-1,-1,-1,-1,-1,-1,-1,-1,-1,-1,-1,-1,-1,-1,-1,-1,-1,-1,-1,-1,-1,-1,-1,-1,-1,-1,-1,-1,-1],"split_conditions":[1.95E-1,4.45E0,7.5E-1,-3.4872878E-3,-1.5766659E-3,-3.9737253E-3,-1.693766E-3,-3.4979584E-3,-8.942334E-4,-1.7707007E-3,-1.9418733E-4,-3.9751832E-3,-1.6764652E-4,-7.97597E-5,-1.7161878E-3,-2.0526549E-4,-3.5008064E-3,-9.367989E-4,-8.369846E-6,-1.831995E-3,1.6815357E-5,-2.8127822E-4,6.9047215E-5,-1.1335016E-4,-3.975855E-3,-3.5033238E-3,-2.5076326E-4,-3.9763795E-3,-1.6868924E-4,-1.3454318E-4,-3.5046008E-3,-3.976886E-3,-1.7564415E-4],"split_indices":[84,57,36,53,55,37,46,2147483647,2147483647,2147483647,2147483647,2147483647,2147483647,2147483647,2147483647,2147483647,2147483647,2147483647,2147483647,2147483647,2147483647,2147483647,2147483647,2147483647,2147483647,2147483647,2147483647,2147483647,2147483647,2147483647,2147483647,2147483647,2147483647],"sum_hessian":[5.737E3,1.632E3,4.105E3,1.603E3,2.9E1,4.077E3,2.8E1,1.593E3,1E1,2.3E1,6E0,4.075E3,2E0,1E0,2.7E1,2E0,1.591E3,9E0,1E0,2.2E1,1E0,4E0,2E0,1E0,4.074E3,1.589E3,2E0,4.073E3,1E0,1E0,1.588E3,4.072E3,1E0],"tree_param":{"num_deleted":"26","num_feature":"151","num_nodes":"33","size_leaf_vector":"0"}},{"base_weights":[-1.1942338E-1,-1.0967882E-1,-1.2468854E-1,-9.83684E-2,-1.1701799E-1,-1.2477458E-1,-1.3218343E-2,-9.8827094E-2,-1.1642933E-2,-1.18242204E-1,-5.139066E-2,-1.2480878E-1,5.1501775E-5,-1.8441433E-2,4.968079E-3,-6.894661E-2,-1.0236771E-1,6.663649E-3,-2.102038E-2,-1.18393086E-1,-4.772591E-3,-5.2120995E-2,-2.115929E-3,-1.4833657E-2,-1.2488895E-1,-8.513807E-3,-7.184717E-2,-1.02493525E-1,-5.178593E-4,-1.1848995E-1,-2.7913382E-4,-2.410385E-3,-5.280538E-2,-8.4308727E-4,-1.2492057E-1,-1.0935672E-2,1.5995087E-3,-7.3914155E-2,-3.8993019E-3,-6.572713E-4,-1.026177E-1,-1.186302E-1,-5.9174546E-3,-5.3501543E-2,-2.4963338E-3,-1.24943525E-1,-3.7652126E-3],"default_left":[true,true,false,false,true,false,true,true,false,true,true,true,true,true,true,true,true,true,true,true,true,true,true,true,true,true,true,true,true,true,true,true,true,true,true,true,true,true,true,true,true,true,true,true,true,true,true],"id":36,"leaf_child_counts":[0,0,0,0,0,0,0,0,0,0,0,0,0,0,0,0,0,0,0,0,0,0,0,0,0,0,0,0,0,0,0,0,0,0,0,0,0,0,0,0,0,0,0,0,0,0,0],"left_children":[1,3,5,7,9,-1,-1,15,-1,-1,-1,-1,-1,-1,-1,-1,-1,-1,-1,-1,-1,-1,-1,-1,-1,-1,-1,-1,-1,-1,-1,-1,-1,-1,-1,-1,-1,-1,-1,-1,-1,-1,-1,-1,-1,-1,-1],"loss_changes":[1.6072845E-1,6.1019897E-2,1.8913269E-2,2.404213E-2,3.8347244E-2,1.5712738E-2,2.2219287E-3,2.3842812E-2,4.1071572E-3,1.4863968E-2,3.4623593E-4,1.4026642E-2,0E0,0E0,0E0,1.5675366E-2,9.34124E-3,0E0,0E0,1.3309479E-2,0E0,6.605685E-5,0E0,0E0,1.3317108E-2,5.858755E-4,1.3569236E-2,9.057045E-3,0E0,1.1871338E-2,0E0,0E0,8.0391765E-6,0E0,5.5351257E-3,0E0,0E0,0E0,0E0,0E0,0E0,0E0,0E0,0E0,0E0,0E0,0E0],"parents":[2147483647,0,0,1,1,2,2,3,3,4,4,5,5,6,6,7,7,8,8,9,9,10,10,11,11,15,15,16,16,19,19,21,21,24,24,25,25,26,26,27,27,29,29,32,32,34,34],"right_children":[2,4,6,8,10,-1,-1,16,-1,-1,-1,-1,-1,-1,-1,-1,-1,-1,-1,-1,-1,-1,-1,-1,-1,-1,-1,-1,-1,-1,-1,-1,-1,-1,-1,-1,-1,-1,-1,-1,-1,-1,-1,-1,-1,-1,-1],"split_conditions":[4.5E0,3.5E-2,2.6E0,1.0353E3,4E-1,-3.8781126E-3,-4.1083866E-4,7.85E1,-3.6187342E-4,-3.6750801E-3,-1.5972705E-3,-3.8791755E-3,1.6007241E-6,-5.7317724E-4,1.5441261E-4,-2.142926E-3,-3.1816855E-3,2.0711253E-4,-6.533334E-4,-3.6797696E-3,-1.4833667E-4,-1.6199701E-3,-6.576508E-5,-4.6104417E-4,-3.8816673E-3,-2.646172E-4,-2.2330782E-3,-3.185596E-3,-1.6095559E-5,-3.6827803E-3,-8.6757445E-6,-7.491706E-5,-1.6412414E-3,-2.6203954E-5,-3.88265E-3,-3.3989106E-4,4.971425E-5,-2.2973223E-3,-1.21194E-4,-2.0428617E-5,-3.1894557E-3,-3.6871394E-3,-1.8392011E-4,-1.6628788E-3,-7.7588425E-5,-3.8833634E-3,-1.17026386E-4],"split_indices":[89,84,34,24,36,54,1,26,30,37,3,2147483647,2147483647,2147483647,2147483647,17,105,2147483647,2147483647,2147483647,2147483647,2147483647,2147483647,2147483647,2147483647,2147483647,2147483647,2147483647,2147483647,2147483647,2147483647,2147483647,2147483647,2147483647,2147483647,2147483647,2147483647,2147483647,2147483647,2147483647,2147483647,2147483647,2147483647,2147483647,2147483647,2147483647,2147483647],"sum_hessian":[5.754E3,2.094E3,3.66E3,8.8E2,1.214E3,3.656E3,4E0,8.74E2,6E0,1.184E3,3E1,3.655E3,1E0,3E0,1E0,1.14E2,7.6E2,3E0,3E0,1.182E3,2E0,2.9E1,1E0,4E0,3.651E3,7E0,1.07E2,7.59E2,1E0,1.181E3,1E0,1E0,2.8E1,1E0,3.65E3,5E0,2E0,1.03E2,4E0,1E0,7.58E2,1.179E3,2E0,2.7E1,1E0,3.649E3,1E0],"tree_param":{"num_deleted":"34","num_feature":"151","num_nodes":"47","size_leaf_vector":"0"}},{"base_weights":[-1.15939595E-1,-1.1062165E-1,-1.2472084E-1,-8.7435514E-2,-1.1244798E-1,-1.2476995E-1,-1.9689957E-3,-8.86311E-2,-4.565644E-3,-3.4688278E-3,-1.12502255E-1,-2.9246474E-3,-1.2481416E-1,-9.1146E-2,-3.3078264E-2,1.500959E-3,-6.071128E-3,-1.12584904E-1,-1.2299328E-2,-3.408467E-3,-1.2485592E-1,-2.072623E-2,-9.293115E-2,6.2206585E-4,-3.8745213E-2,-1.1501994E-1,-9.776371E-2,4.0824738E-4,-1.3599736E-2,-1.2495109E-1,-1.3582766E-2,-2.2312973E-2,8.4786024E-4,-6.0170977E-3,-9.365838E-2,-2.1246448E-3,2.8515167E-3,-7.10991E-4,-4.0044546E-2,-1.1513065E-1,-1.750882E-2,-9.794531E-2,5.8933976E-5,-5.176167E-3,-1.24983825E-1],"default_left":[true,true,true,false,true,true,true,true,true,true,true,true,true,true,false,true,true,true,true,true,true,true,true,true,true,true,true,true,true,true,true,true,true,true,true,true,true,true,true,true,true,true,true,true,true],"id":37,"leaf_child_counts":[0,0,0,0,0,0,0,0,0,0,0,0,0,0,0,0,0,0,0,0,0,0,0,0,0,0,0,0,0,0,0,0,0,0,0,0,0,0,0,0,0,0,0,0,0],"left_children":[1,3,-1,7,-1,-1,-1,13,-1,-1,-1,-1,-1,21,-1,-1,-1,-1,-1,-1,-1,-1,-1,-1,-1,-1,-1,-1,-1,-1,-1,-1,-1,-1,-1,-1,-1,-1,-1,-1,-1,-1,-1,-1,-1],"loss_changes":[1.3399506E-1,5.924225E-2,1.026535E-2,2.7103662E-2,1.6181946E-2,7.7285767E-3,0E0,1.339221E-2,2.2576578E-4,0E0,1.43585205E-2,0E0,6.4582825E-3,1.7427444E-2,5.7515986E-3,0E0,0E0,1.1024475E-2,2.8401916E-4,0E0,5.504608E-3,8.669682E-4,1.2126923E-2,1.4474208E-4,9.480603E-4,1.0845184E-2,9.700775E-3,0E0,0E0,1.8424988E-3,0E0,0E0,0E0,0E0,0E0,0E0,0E0,0E0,0E0,0E0,0E0,0E0,0E0,0E0,0E0],"parents":[2147483647,0,0,1,1,2,2,3,3,4,4,5,5,7,7,8,8,10,10,12,12,13,13,14,14,17,17,18,18,20,20,21,21,22,22,23,23,24,24,25,25,26,26,29,29],"right_children":[2,4,-1,8,-1,-1,-1,14,-1,-1,-1,-1,-1,22,-1,-1,-1,-1,-1,-1,-1,-1,-1,-1,-1,-1,-1,-1,-1,-1,-1,-1,-1,-1,-1,-1,-1,-1,-1,-1,-1,-1,-1,-1,-1],"split_conditions":[3.435E0,8.15E1,-3.8764423E-3,5.8999996E0,-3.49499E-3,-3.8779685E-3,-6.1198254E-5,1.9E0,-1.4190456E-4,-1.0781446E-4,-3.496677E-3,-9.090082E-5,-3.8793427E-3,7.5E-1,-1.0281039E-3,4.6651232E-5,-1.8869643E-4,-3.4992457E-3,-3.822748E-4,-1.05938394E-4,-3.8806407E-3,-6.4419094E-4,-2.8883885E-3,1.9334399E-5,-1.204238E-3,-3.574929E-3,-3.038589E-3,1.2688716E-5,-4.226927E-4,-3.8835986E-3,-4.2216526E-4,-6.9350837E-4,2.6352302E-5,-1.8701711E-4,-2.9109914E-3,-6.603598E-5,8.862785E-5,-2.2098275E-5,-1.2446225E-3,-3.57837E-3,-5.4419076E-4,-3.0442332E-3,1.8317239E-6,-1.6088018E-4,-3.884616E-3],"split_indices":[84,26,5,19,56,2147483647,2147483647,56,1,2147483647,2147483647,2147483647,2147483647,149,59,2147483647,2147483647,2147483647,2147483647,2147483647,2147483647,28,47,2147483647,2147483647,2147483647,2147483647,2147483647,2147483647,2147483647,2147483647,2147483647,2147483647,2147483647,2147483647,2147483647,2147483647,2147483647,2147483647,2147483647,2147483647,2147483647,2147483647,2147483647,2147483647],"sum_hessian":[5.776E3,3.681E3,2.095E3,3.04E2,3.377E3,2.094E3,1E0,2.99E2,5E0,2E0,3.375E3,1E0,2.093E3,2.8E2,1.9E1,1E0,4E0,3.371E3,4E0,1E0,2.092E3,1E1,2.7E2,4E0,1.5E1,2.838E3,5.33E2,1E0,3E0,2.089E3,3E0,9E0,1E0,3E0,2.67E2,2E0,2E0,1E0,1.4E1,2.833E3,5E0,5.32E2,1E0,1E0,2.088E3],"tree_param":{"num_deleted":"34","num_feature":"151","num_nodes":"45","size_leaf_vector":"0"}},{"base_weights":[-1.1207032E-1,-1.0441612E-1,-1.1784067E-1,-9.7630754E-2,-1.13518916E-1,-6.077524E-3,-1.1789168E-1,-3.264565E-2,-9.8231114E-2,-1.1368489E-1,5.327374E-3,-6.88958E-3,-1.1793975E-1,9.208216E-4,-3.6889374E-2,-9.830324E-2,1.0408425E-3,-1.1382244E-1,2.597961E-3,-1.1796621E-1,-3.051875E-3,-3.2748752E-3,3.997391E-3,1.1799488E-3,-3.888836E-2,-9.837073E-2,3.8043488E-4,-1.14011474E-1,-2.7765364E-3,-1.18211165E-1,-4.5589626E-2,-3.9983813E-2,-1.1718586E-3,-9.846616E-2,-4.3875724E-3,-3.944913E-2,-1.1480408E-1,-3.761698E-3,7.297497E-4,-1.18233904E-1,-4.2134514E-3,1.1121976E-2,-5.456425E-2],"default_left":[true,true,true,true,true,false,true,true,true,true,false,false,false,true,true,true,true,false,false,true,false,true,true,true,true,true,true,false,true,true,true,true,true,true,true,true,true,true,true,true,true,false,false],"id":38,"leaf_child_counts":[0,0,0,0,0,0,0,0,0,0,0,0,0,0,0,0,0,0,0,0,0,0,0,0,0,0,0,0,0,0,0,0,0,0,0,0,0,0,0,0,0,0,0],"left_children":[1,3,5,7,9,-1,11,-1,-1,17,-1,-1,19,-1,-1,-1,-1,27,-1,29,-1,-1,-1,-1,-1,-1,-1,-1,-1,-1,41,-1,-1,-1,-1,-1,-1,-1,-1,-1,-1,-1,-1],"loss_changes":[1.3298798E-1,4.8900604E-2,1.121521E-2,2.8385162E-2,2.6371956E-2,0E0,9.086609E-3,4.447859E-3,1.1891365E-2,1.9438744E-2,0E0,0E0,6.187439E-3,2.953595E-4,2.4217032E-3,1.0485649E-2,0E0,1.8536568E-2,0E0,3.5858154E-3,0E0,0E0,0E0,0E0,5.650744E-4,9.348869E-3,0E0,1.6160011E-2,6.810124E-5,3.3416748E-3,1.9666534E-2,0E0,0E0,0E0,0E0,0E0,0E0,0E0,0E0,0E0,0E0,0E0,0E0],"parents":[2147483647,0,0,1,1,2,2,3,3,4,4,6,6,7,7,8,8,9,9,12,12,13,13,14,14,15,15,17,17,19,19,24,24,25,25,27,27,28,28,29,29,30,30],"right_children":[2,4,6,8,10,-1,12,-1,-1,18,-1,-1,20,-1,-1,-1,-1,28,-1,30,-1,-1,-1,-1,-1,-1,-1,-1,-1,-1,42,-1,-1,-1,-1,-1,-1,-1,-1,-1,-1,-1,-1],"split_conditions":[1.275E0,4.5E0,-7E0,4.75E1,1.7E0,-1.8889521E-4,-1.5549999E1,-1.0146578E-3,-3.0531164E-3,6.25E0,1.6557986E-4,-2.1413469E-4,6.05E1,2.862001E-5,-1.1465568E-3,-3.0553583E-3,3.2350374E-5,4.55E1,8.07471E-5,3.5000002E-1,-9.4855175E-5,-1.0178623E-4,1.2424271E-4,3.667393E-5,-1.2086872E-3,-3.0574559E-3,1.1824278E-5,-3.5435848E-3,-8.629739E-5,-3.6741153E-3,1.4E3,-1.2427348E-3,-3.642248E-5,-3.0604217E-3,-1.3636991E-4,-1.2261164E-3,-3.56822E-3,-1.1691715E-4,2.2681314E-5,-3.6748222E-3,-1.3095807E-4,3.456816E-4,-1.6959087E-3],"split_indices":[84,89,58,3,33,0,36,148,25,48,0,0,55,2147483647,2147483647,2147483647,2147483647,54,0,33,0,2147483647,2147483647,2147483647,2147483647,2147483647,2147483647,39,0,18,6,2147483647,2147483647,2147483647,2147483647,2147483647,2147483647,2147483647,2147483647,2147483647,2147483647,0,0],"sum_hessian":[5.751E3,2.553E3,3.198E3,1.529E3,1.024E3,2E0,3.196E3,1.9E1,1.51E3,1.023E3,1E0,2E0,3.194E3,3E0,1.6E1,1.509E3,1E0,1.022E3,1E0,3.193E3,1E0,1E0,2E0,1E0,1.5E1,1.508E3,1E0,1.02E3,2E0,3.176E3,1.7E1,1.4E1,1E0,1.506E3,2E0,1.6E1,1.004E3,1E0,1E0,3.175E3,1E0,2E0,1.5E1],"tree_param":{"num_deleted":"20","num_feature":"151","num_nodes":"43","size_leaf_vector":"0"}},{"base_weights":[-1.0881071E-1,-1.0384535E-1,-1.1716068E-1,-8.3043255E-2,-1.0546848E-1,-1.1753852E-1,-3.6060974E-2,-8.5268594E-2,-2.3253446E-2,-1.05548345E-1,-1.0838795E-2,-1.1762023E-1,-5.617274E-3,-1.0904393E-2,-8.642063E-2,3.3674003E-3,-2.7034715E-2,-1.0558363E-1,1.321698E-3,7.376877E-4,-1.2303975E-2,-6.853503E-3,-1.17694974E-1,6.5782777E-4,-1.30396485E-2,-8.7177105E-2,-3.047741E-3,-2.1506357E-3,-2.9723266E-2,2.3776735E-4,-1.0561547E-1,-2.2300754E-3,-1.17740385E-1,7.803851E-4,-6.20442E-5,-1.9012984E-2,-8.868774E-2,1.7948694E-3,-4.9481527E-3,-1.1656273E-3,-1.05642825E-1,-1.1777242E-1,-4.7693574E-3],"default_left":[true,true,true,true,false,true,false,false,false,true,true,true,true,true,true,true,true,true,true,true,true,true,true,true,true,true,true,true,true,true,true,true,true,true,true,true,true,true,true,true,true,true,true],"id":39,"leaf_child_counts":[0,0,0,0,0,0,0,0,0,0,0,0,0,0,0,0,0,0,0,0,0,0,0,0,0,0,0,0,0,0,0,0,0,0,0,0,0,0,0,0,0,0,0],"left_children":[1,3,5,7,-1,-1,-1,-1,-1,-1,-1,-1,-1,-1,-1,-1,-1,-1,-1,-1,-1,-1,-1,-1,-1,-1,-1,-1,-1,-1,-1,-1,-1,-1,-1,-1,-1,-1,-1,-1,-1,-1,-1],"loss_changes":[1.19377136E-1,3.8776398E-2,2.180481E-2,2.2322893E-2,1.4431E-2,1.2342453E-2,0E0,1.638794E-2,3.4021167E-3,1.4198303E-2,3.2486394E-4,9.09996E-3,0E0,4.7649373E-4,1.591158E-2,0E0,8.991249E-4,1.1695862E-2,0E0,0E0,0E0,0E0,8.201599E-3,1.5252394E-6,0E0,1.3306856E-2,2.0611512E-4,0E0,0E0,0E0,8.495331E-3,0E0,1.9054413E-3,0E0,0E0,0E0,0E0,0E0,0E0,0E0,0E0,0E0,0E0],"parents":[2147483647,0,0,1,1,2,2,3,3,4,4,5,5,7,7,8,8,9,9,10,10,11,11,13,13,14,14,16,16,17,17,22,22,23,23,25,25,26,26,30,30,32,32],"right_children":[2,4,6,8,-1,-1,-1,-1,-1,-1,-1,-1,-1,-1,-1,-1,-1,-1,-1,-1,-1,-1,-1,-1,-1,-1,-1,-1,-1,-1,-1,-1,-1,-1,-1,-1,-1,-1,-1,-1,-1,-1,-1],"split_conditions":[3.435E0,8.15E1,3.5E-1,1.9E0,-3.2780606E-3,-3.653209E-3,-1.1208093E-3,-2.650229E-3,-7.227392E-4,-3.2805428E-3,-3.3688007E-4,-3.6557484E-3,-1.7459021E-4,-3.389189E-4,-2.6860354E-3,1.04662E-4,-8.402646E-4,-3.2816397E-3,4.1079627E-5,2.2928034E-5,-3.8241924E-4,-2.130134E-4,-3.6580716E-3,2.0445912E-5,-4.0528466E-4,-2.7095473E-3,-9.472669E-5,-6.68438E-5,-9.2382735E-4,7.390035E-6,-3.282629E-3,-6.931286E-5,-3.659483E-3,2.425511E-5,-1.9283927E-6,-5.909416E-4,-2.7564992E-3,5.5786248E-5,-1.5379328E-4,-3.6228805E-5,-3.2834795E-3,-3.6604789E-3,-1.4823615E-4],"split_indices":[84,26,37,56,54,5,0,49,59,2147483647,2147483647,2147483647,2147483647,2147483647,2147483647,2147483647,2147483647,2147483647,2147483647,2147483647,2147483647,2147483647,2147483647,2147483647,2147483647,2147483647,2147483647,2147483647,2147483647,2147483647,2147483647,2147483647,2147483647,2147483647,2147483647,2147483647,2147483647,2147483647,2147483647,2147483647,2147483647,2147483647,2147483647],"sum_hessian":[5.766E3,3.699E3,2.067E3,3.05E2,3.394E3,2.053E3,1.4E1,2.9E2,1.5E1,3.39E3,4E0,2.051E3,2E0,6E0,2.84E2,2E0,1.3E1,3.389E3,1E0,1E0,3E0,2E0,2.049E3,2E0,4E0,2.81E2,3E0,3E0,1E1,1E0,3.388E3,1E0,2.048E3,1E0,1E0,9E0,2.72E2,1E0,2E0,1E0,3.387E3,2.047E3,1E0],"tree_param":{"num_deleted":"34","num_feature":"151","num_nodes":"43","size_leaf_vector":"0"}},{"base_weights":[-1.053982E-1,-1.074953E-1,-8.679269E-2,-1.0815286E-1,-5.7765007E-2,-3.3206735E-2,-8.846005E-2,-1.0839652E-1,-4.0608678E-2,-1.757934E-2,-6.855221E-2,5.1328265E-5,-3.524571E-2,-8.751662E-3,-8.884562E-2,-1.0339846E-1,-1.1415099E-1,-4.9027536E-2,6.41948E-3,-1.9899838E-2,2.8773476E-3,-6.9504716E-2,-6.220869E-4,-1.3757164E-3,1.4317663E-3,-3.734956E-2,-4.6701817E-4,-8.9010626E-2,9.628359E-4,-1.0352255E-1,-4.9395757E-3,-1.1429623E-1,-1.4451795E-3,-1.2047756E-3,-5.2032594E-2,-7.082467E-4,7.5164344E-3,-2.179649E-2,1.1003078E-3,-7.191062E-3,-7.137893E-2,-5.6032924E-4,-3.839601E-2,-1.4579723E-3,9.479934E-4,-3.5316118E-3,-8.92375E-2,-1.0364415E-1,-5.5095004E-3,-8.914355E-3,2.2057944E-3,-1.1438432E-1,-2.7236554E-3,-7.5741345E-3,5.369166E-3,-1.6647265E-3,3.4912425E-4,-5.6684826E-2,-6.9987057E-3,6.248692E-4,-2.3768235E-2,2.0386626E-3,-8.371382E-4,-8.132675E-3,-7.3238306E-2,-2.9356729E-3,-3.990092E-2,-8.9439444E-2,-4.86405E-3],"default_left":[true,true,true,true,true,false,false,false,false,false,true,true,true,true,true,true,true,true,true,true,true,true,true,true,true,true,true,true,true,false,true,true,true,true,true,true,true,true,true,true,true,true,true,true,true,true,true,false,false,true,true,false,false,true,true,true,true,true,true,true,true,true,true,true,true,true,true,true,true],"id":40,"leaf_child_counts":[0,0,0,0,0,0,0,0,0,0,0,0,0,0,0,0,0,0,0,0,0,0,0,0,0,0,0,0,0,0,0,0,0,0,0,0,0,0,0,0,0,0,0,0,0,0,0,0,0,0,0,0,0,0,0,0,0,0,0,0,0,0,0,0,0,0,0,0,0],"left_children":[1,3,5,7,9,-1,-1,15,-1,-1,-1,-1,-1,-1,-1,29,31,-1,-1,-1,-1,-1,-1,-1,-1,-1,-1,-1,-1,47,-1,51,-1,-1,-1,-1,-1,-1,-1,-1,-1,-1,-1,-1,-1,-1,-1,-1,-1,-1,-1,-1,-1,-1,-1,-1,-1,-1,-1,-1,-1,-1,-1,-1,-1,-1,-1,-1,-1],"loss_changes":[1.3155365E-1,1.0542679E-1,2.7460575E-2,3.936386E-2,2.6195854E-2,2.382528E-3,1.0975838E-2,2.7526855E-2,1.6516905E-2,2.078088E-3,3.8352907E-3,4.2827476E-5,2.232954E-3,0E0,9.77993E-3,2.897644E-2,3.491783E-2,3.6739632E-3,1.6100024E-4,1.4264844E-3,0E0,2.5096238E-3,0E0,0E0,0E0,9.7610056E-4,3.0288333E-5,8.561134E-3,0E0,2.7507782E-2,5.8804115E-4,1.884079E-2,9.3896175E-4,1.4221167E-5,1.9232109E-3,0E0,0E0,1.3787486E-3,3.8427243E-5,0E0,1.3965964E-3,0E0,4.3781847E-4,0E0,0E0,0E0,5.926609E-3,0E0,0E0,0E0,0E0,0E0,0E0,0E0,0E0,0E0,0E0,0E0,0E0,0E0,0E0,0E0,0E0,0E0,0E0,0E0,0E0,0E0,0E0],"parents":[2147483647,0,0,1,1,2,2,3,3,4,4,5,5,6,6,7,7,8,8,9,9,10,10,11,11,12,12,14,14,15,15,16,16,17,17,18,18,19,19,21,21,25,25,26,26,27,27,29,29,30,30,31,31,32,32,33,33,34,34,37,37,38,38,40,40,42,42,46,46],"right_children":[2,4,6,8,10,-1,-1,16,-1,-1,-1,-1,-1,-1,-1,30,32,-1,-1,-1,-1,-1,-1,-1,-1,-1,-1,-1,-1,48,-1,52,-1,-1,-1,-1,-1,-1,-1,-1,-1,-1,-1,-1,-1,-1,-1,-1,-1,-1,-1,-1,-1,-1,-1,-1,-1,-1,-1,-1,-1,-1,-1,-1,-1,-1,-1,-1,-1],"split_conditions":[5E-1,2.25E0,7.65E1,6.45E0,1.1500001E0,-1.0320969E-3,-2.7494223E-3,-5.25E0,-1.2621563E-3,-5.4638257E-4,-2.130668E-3,1.5953312E-6,-1.0954702E-3,-2.7201E-4,-2.7614061E-3,2.6999998E0,1.0377E3,-1.5238224E-3,1.9952354E-4,-6.185059E-4,8.94307E-5,-2.1602726E-3,-1.9335053E-5,-4.2758573E-5,4.450066E-5,-1.1608598E-3,-1.4515368E-5,-2.766535E-3,2.9925855E-5,2.5500002E0,-1.5352671E-4,2.25E0,-4.491755E-5,-3.744557E-5,-1.6172224E-3,-2.201298E-5,2.3361792E-4,-6.7745557E-4,3.4198612E-5,-2.2350503E-4,-2.218525E-3,-1.7415565E-5,-1.1933844E-3,-4.5315166E-5,2.9464536E-5,-1.09765846E-4,-2.7735864E-3,-3.2213586E-3,-1.712405E-4,-2.7706663E-4,6.855818E-5,-3.5551735E-3,-8.4653795E-5,-2.354113E-4,1.6687877E-4,-5.174128E-5,1.0851113E-5,-1.7618182E-3,-2.1752642E-4,1.9421528E-5,-7.387393E-4,6.336357E-5,-2.6019052E-5,-2.5277125E-4,-2.276316E-3,-9.12435E-5,-1.2401586E-3,-2.7798628E-3,-1.511793E-4],"split_indices":[93,17,27,58,32,44,25,34,55,50,41,2147483647,2147483647,2147483647,2147483647,56,22,2147483647,2147483647,2147483647,2147483647,2147483647,2147483647,2147483647,2147483647,2147483647,2147483647,2147483647,2147483647,19,1,36,1,2147483647,2147483647,2147483647,2147483647,2147483647,2147483647,2147483647,2147483647,2147483647,2147483647,2147483647,2147483647,2147483647,2147483647,0,0,2147483647,2147483647,0,0,2147483647,2147483647,2147483647,2147483647,2147483647,2147483647,2147483647,2147483647,2147483647,2147483647,2147483647,2147483647,2147483647,2147483647,2147483647,2147483647],"sum_hessian":[5.722E3,5.1E3,6.22E2,5.022E3,7.8E1,2.5E1,5.97E2,4.998E3,2.4E1,2.2E1,5.6E1,2E0,2.3E1,4E0,5.93E2,2.775E3,2.223E3,2E1,4E0,2E1,2E0,5.5E1,1E0,1E0,1E0,2.1E1,2E0,5.92E2,1E0,2.771E3,4E0,2.22E3,3E0,2E0,1.8E1,1E0,3E0,1.8E1,2E0,3E0,5.2E1,1E0,2E1,1E0,1E0,2E0,5.9E2,2.767E3,4E0,1E0,3E0,2.218E3,2E0,1E0,2E0,1E0,1E0,1.4E1,4E0,2E0,1.6E1,1E0,1E0,3E0,4.9E1,2E0,1.8E1,5.88E2,2E0],"tree_param":{"num_deleted":"48","num_feature":"151","num_nodes":"69","size_leaf_vector":"0"}},{"base_weights":[-1.0210197E-1,-9.729676E-2,-1.10065416E-1,-9.055804E-2,-1.03058286E-1,-1.10361405E-1,-2.8555945E-2,-9.0970755E-2,-2.5445795E-2,-1.031545E-1,-1.9239149E-3,-1.3873255E-2,-1.1052816E-1,-2.9618032E-2,-6.854512E-4,-3.400631E-2,-9.1499336E-2,2.2415826E-3,-3.0255325E-2,-1.0321648E-1,1.3652152E-3,-3.1558818E-3,1.0549872E-3,-1.106087E-1,-4.5801746E-3,-4.0980924E-2,-3.8278927E-3,-9.156411E-2,1.9195747E-3,-5.921416E-4,-3.139655E-2,4.6522942E-4,-1.0327338E-1,-1.5976873E-3,-1.10653765E-1,-4.3505553E-2,-2.0404246E-3,4.428412E-3,-8.764946E-3,-9.1624536E-2,1.2157528E-3,-3.217763E-2,-1.4604054E-3,-4.1967936E-2,-1.0373736E-1,-1.1068553E-1,-4.1362154E-3],"default_left":[true,true,true,true,false,true,true,true,false,true,true,false,true,true,true,true,true,true,true,true,true,true,true,true,true,true,true,true,true,true,true,true,true,true,true,true,true,true,true,true,true,true,true,true,true,true,true],"id":41,"leaf_child_counts":[0,0,0,0,0,0,0,0,0,0,0,0,0,0,0,0,0,0,0,0,0,0,0,0,0,0,0,0,0,0,0,0,0,0,0,0,0,0,0,0,0,0,0,0,0,0,0],"left_children":[1,3,5,7,-1,11,-1,15,-1,-1,-1,-1,-1,-1,-1,-1,-1,-1,-1,-1,-1,-1,-1,-1,-1,-1,-1,-1,-1,-1,-1,-1,-1,-1,-1,-1,-1,-1,-1,-1,-1,-1,-1,-1,-1,-1,-1],"loss_changes":[1.1424637E-1,5.0361633E-2,1.9264221E-2,2.4793625E-2,1.659584E-2,1.8281937E-2,4.173983E-4,2.2216797E-2,3.9813165E-3,1.3731003E-2,7.642887E-5,0E0,1.2678146E-2,0E0,0E0,5.1598214E-3,1.22385025E-2,0E0,5.568657E-4,1.1705399E-2,0E0,0E0,0E0,8.424759E-3,0E0,1.5688278E-3,1.0708187E-3,1.0826111E-2,0E0,0E0,2.416037E-5,0E0,1.1152267E-2,0E0,2.4814606E-3,0E0,0E0,0E0,0E0,0E0,0E0,0E0,0E0,0E0,0E0,0E0,0E0],"parents":[2147483647,0,0,1,1,2,2,3,3,4,4,5,5,6,6,7,7,8,8,9,9,10,10,12,12,15,15,16,16,18,18,19,19,23,23,25,25,26,26,27,27,30,30,32,32,34,34],"right_children":[2,4,6,8,-1,12,-1,16,-1,-1,-1,-1,-1,-1,-1,-1,-1,-1,-1,-1,-1,-1,-1,-1,-1,-1,-1,-1,-1,-1,-1,-1,-1,-1,-1,-1,-1,-1,-1,-1,-1,-1,-1,-1,-1,-1,-1],"split_conditions":[3.435E0,4.5E0,2.5E-1,2.75E0,-3.2031494E-3,-1.35E1,-8.875459E-4,-3.85E0,-7.908795E-4,-3.20614E-3,-5.97971E-5,-4.3119394E-4,-3.4353202E-3,-9.205566E-4,-2.1304475E-5,-1.0569483E-3,-2.8438864E-3,6.967052E-5,-9.4036426E-4,-3.208066E-3,4.2432184E-5,-9.80878E-5,3.2790005E-5,-3.4378234E-3,-1.4235618E-4,-1.273726E-3,-1.18974545E-4,-2.8458997E-3,5.9662205E-5,-1.8404324E-5,-9.7583455E-4,1.44597725E-5,-3.2098347E-3,-4.965764E-5,-3.439224E-3,-1.3521939E-3,-6.341834E-5,1.3763925E-4,-2.7242285E-4,-2.8477777E-3,3.778675E-5,-1.0001113E-3,-4.539079E-5,-1.3044033E-3,-3.2242557E-3,-3.4402113E-3,-1.285575E-4],"split_indices":[84,89,36,56,54,5,5,57,35,2147483647,2147483647,0,32,2147483647,2147483647,150,25,2147483647,2147483647,2147483647,2147483647,2147483647,2147483647,2147483647,2147483647,2147483647,2147483647,2147483647,2147483647,2147483647,2147483647,2147483647,2147483647,2147483647,2147483647,2147483647,2147483647,2147483647,2147483647,2147483647,2147483647,2147483647,2147483647,2147483647,2147483647,2147483647,2147483647],"sum_hessian":[5.738E3,3.66E3,2.078E3,1.763E3,1.897E3,2.067E3,1.1E1,1.748E3,1.5E1,1.895E3,2E0,5E0,2.062E3,1E1,1E0,2.2E1,1.726E3,3E0,1.2E1,1.894E3,1E0,1E0,1E0,2.06E3,2E0,1.5E1,7E0,1.725E3,1E0,1E0,1.1E1,1E0,1.893E3,1E0,2.059E3,1.3E1,2E0,3E0,4E0,1.724E3,1E0,1E1,1E0,2.1E1,1.872E3,2.058E3,1E0],"tree_param":{"num_deleted":"34","num_feature":"151","num_nodes":"47","size_leaf_vector":"0"}},{"base_weights":[-9.9021815E-2,-1.00954935E-1,-8.150164E-2,-1.018495E-1,-6.823112E-2,-3.1304915E-2,-8.307066E-2,-9.675523E-2,-1.0760672E-1,-6.9497585E-2,3.193219E-4,-3.280312E-2,1.7883145E-3,-8.3662614E-2,-9.14275E-3,-9.687236E-2,-4.5882096E-3,-1.117473E-2,-1.07770756E-1,-7.041194E-2,8.36195E-4,-4.308746E-3,5.0831754E-3,-3.4874838E-2,3.547412E-5,-7.1386932E-3,-8.406005E-2,9.032429E-3,-1.6360419E-2,-9.703889E-2,-1.771244E-2,-9.855016E-3,4.4937837E-3,-1.1570585E-2,-5.228584E-4,-1.0785311E-1,-2.4452389E-3,-1.5586762E-2,-7.299188E-2,-2.5600325E-3,3.4731484E-3,-2.03781E-4,-3.593278E-2,-1.2658043E-3,1.3045417E-3,-8.4229216E-2,1.4773601E-3,-6.0380663E-4,-1.706669E-2,-9.708468E-2,2.665343E-3,1.6645688E-3,-1.98349E-2,-1.07898936E-1,-3.7820605E-4,-7.3083956E-3,4.6382206E-3,2.1398377E-3,-1.7645419E-2,-7.339678E-3,-7.472185E-2,-2.4331806E-3,-3.742154E-2,-2.762195E-3,-8.445921E-2],"default_left":[true,true,true,false,true,false,true,false,true,true,true,true,true,false,true,true,true,true,true,true,true,true,true,true,true,true,true,true,true,true,true,true,true,true,true,true,true,true,true,true,true,true,true,true,true,true,true,true,true,true,true,true,true,true,true,true,true,true,true,true,true,true,true,true,true],"id":42,"leaf_child_counts":[0,0,0,0,0,0,0,0,0,0,0,0,0,0,0,0,0,0,0,0,0,0,0,0,0,0,0,0,0,0,0,0,0,0,0,0,0,0,0,0,0,0,0,0,0,0,0,0,0,0,0,0,0,0,0,0,0,0,0,0,0,0,0,0,0],"left_children":[1,3,5,7,-1,-1,13,15,17,-1,-1,-1,-1,-1,-1,29,-1,-1,35,-1,-1,-1,-1,-1,-1,-1,-1,-1,-1,-1,-1,-1,-1,-1,-1,-1,-1,-1,-1,-1,-1,-1,-1,-1,-1,-1,-1,-1,-1,-1,-1,-1,-1,-1,-1,-1,-1,-1,-1,-1,-1,-1,-1,-1,-1],"loss_changes":[1.153183E-1,8.318329E-2,2.37813E-2,4.4662476E-2,1.4793038E-2,2.3079515E-3,1.8832684E-2,2.5461197E-2,2.4049759E-2,1.1184037E-2,4.999603E-4,2.3165196E-3,0E0,1.2229443E-2,3.5406258E-3,1.9428253E-2,1.1006265E-3,2.988032E-6,1.7059326E-2,1.1807263E-2,1.9407655E-4,0E0,0E0,1.0967441E-3,3.590322E-5,0E0,9.80711E-3,0E0,6.377045E-5,1.512146E-2,1.0608728E-3,0E0,0E0,0E0,0E0,1.0751724E-2,7.4352615E-4,1.097851E-3,1.1949003E-2,0E0,0E0,0E0,6.408468E-4,0E0,0E0,8.787155E-3,0E0,0E0,0E0,0E0,0E0,0E0,0E0,0E0,0E0,0E0,0E0,0E0,0E0,0E0,0E0,0E0,0E0,0E0,0E0],"parents":[2147483647,0,0,1,1,2,2,3,3,4,4,5,5,6,6,7,7,8,8,9,9,10,10,11,11,13,13,14,14,15,15,16,16,17,17,18,18,19,19,20,20,23,23,24,24,26,26,28,28,29,29,30,30,35,35,36,36,37,37,38,38,42,42,45,45],"right_children":[2,4,6,8,-1,-1,14,16,18,-1,-1,-1,-1,-1,-1,30,-1,-1,36,-1,-1,-1,-1,-1,-1,-1,-1,-1,-1,-1,-1,-1,-1,-1,-1,-1,-1,-1,-1,-1,-1,-1,-1,-1,-1,-1,-1,-1,-1,-1,-1,-1,-1,-1,-1,-1,-1,-1,-1,-1,-1,-1,-1,-1,-1],"split_conditions":[5E-1,5E-1,7.65E1,-5.3500004E0,-2.120688E-3,-9.729865E-4,2.1999998E0,2.5500002E0,6.45E1,-2.160051E-3,9.924828E-6,-1.0195521E-3,5.5582514E-5,-2.6003136E-3,-2.8416535E-4,2.65E0,-1.4260592E-4,-3.473212E-4,1.03785E3,-2.18847E-3,2.5989735E-5,-1.3391992E-4,1.5798993E-4,-1.0839431E-3,1.1025694E-6,-2.2187737E-4,-2.6126662E-3,2.8073648E-4,-5.0849735E-4,-3.016061E-3,-5.505195E-4,-3.0630326E-4,1.3967107E-4,-3.5962477E-4,-1.6250937E-5,-3.352177E-3,-7.6000346E-5,-4.8445136E-4,-2.2686569E-3,-7.956824E-5,1.07948756E-4,-6.333707E-6,-1.1168249E-3,-3.9342398E-5,4.0546394E-5,-2.617924E-3,4.5917757E-5,-1.8766885E-5,-5.304489E-4,-3.017484E-3,8.284139E-5,5.173638E-5,-6.164875E-4,-3.3536013E-3,-1.17550035E-5,-2.2715188E-4,1.4416031E-4,6.650819E-5,-5.4843636E-4,-2.2812416E-4,-2.322426E-3,-7.562556E-5,-1.163097E-3,-8.585164E-5,-2.6250724E-3],"split_indices":[93,92,27,34,2,9,15,19,3,2147483647,2147483647,2147483647,2147483647,25,2,16,1,4,23,2147483647,2147483647,2147483647,2147483647,2147483647,2147483647,2147483647,2147483647,2147483647,2147483647,144,52,2147483647,2147483647,2147483647,2147483647,53,1,2147483647,2147483647,2147483647,2147483647,2147483647,2147483647,2147483647,2147483647,2147483647,2147483647,2147483647,2147483647,2147483647,2147483647,2147483647,2147483647,2147483647,2147483647,2147483647,2147483647,2147483647,2147483647,2147483647,2147483647,2147483647,2147483647,2147483647,2147483647],"sum_hessian":[5.793E3,5.175E3,6.18E2,5.017E3,1.58E2,2.5E1,5.93E2,2.755E3,2.262E3,1.55E2,3E0,2.4E1,1E0,5.87E2,6E0,2.751E3,4E0,5E0,2.257E3,1.53E2,2E0,2E0,1E0,2.2E1,2E0,4E0,5.83E2,1E0,5E0,2.743E3,8E0,2E0,2E0,4E0,1E0,2.255E3,2E0,1E1,1.43E2,1E0,1E0,1E0,2.1E1,1E0,1E0,5.82E2,1E0,1E0,4E0,2.742E3,1E0,1E0,7E0,2.254E3,1E0,1E0,1E0,1E0,9E0,5E0,1.38E2,2E0,1.9E1,2E0,5.8E2],"tree_param":{"num_deleted":"46","num_feature":"151","num_nodes":"65","size_leaf_vector":"0"}},{"base_weights":[-9.574811E-2,-9.112842E-2,-1.034339E-1,-8.499173E-2,-9.6286826E-2,-1.0350883E-1,-4.3117288E-3,-8.5355386E-2,-2.5776044E-2,-3.2215316E-2,-9.6760705E-2,-1.0376895E-1,-2.8793905E-2,-8.545361E-2,2.3602968E-5,2.243729E-3,-3.0632138E-2,1.1247878E-3,-3.6510613E-2,-9.692386E-2,-1.1766749E-2,-2.8816912E-2,-1.0403163E-1,-8.551344E-2,1.7165614E-3,2.458627E-3,-2.432853E-3,2.6543026E-3,-2.4194265E-4,-3.1501655E-2,-1.1484504E-3,-4.165623E-4,1.7866066E-3,-9.698622E-2,1.9373164E-3,-1.7743517E-2,6.5437495E-3,-3.4469076E-2,1.1310884E-3,-1.0042298E-3,-1.04076944E-1,-8.558934E-2,-3.2964381E-3,1.0373306E-3,-9.704348E-2,-1.4685156E-3,2.942788E-3,-2.4719208E-3,-1.0411453E-1],"default_left":[true,true,true,true,false,true,true,true,true,true,false,true,true,true,true,true,true,true,true,true,true,true,true,true,true,true,true,true,true,true,true,true,true,true,true,true,true,true,true,true,true,true,true,true,true,true,true,true,true],"id":43,"leaf_child_counts":[0,0,0,0,0,0,0,0,0,0,0,0,0,0,0,0,0,0,0,0,0,0,0,0,0,0,0,0,0,0,0,0,0,0,0,0,0,0,0,0,0,0,0,0,0,0,0,0,0],"left_children":[1,3,-1,-1,9,-1,-1,-1,-1,-1,-1,-1,-1,-1,-1,-1,-1,-1,-1,-1,-1,-1,-1,-1,-1,-1,-1,-1,-1,-1,-1,-1,-1,-1,-1,-1,-1,-1,-1,-1,-1,-1,-1,-1,-1,-1,-1,-1,-1],"loss_changes":[1.1058426E-1,3.523445E-2,1.1041641E-2,1.6137123E-2,2.7431488E-2,1.0890961E-2,0E0,1.463604E-2,4.062513E-3,4.539827E-3,1.5058517E-2,1.1100769E-2,0E0,1.0530472E-2,1.3004775E-4,1.9474253E-5,2.0358525E-4,2.0475636E-5,0E0,1.3523102E-2,2.773519E-3,3.9176624E-3,8.56781E-3,8.070946E-3,0E0,0E0,0E0,0E0,0E0,0E0,0E0,3.2130106E-7,0E0,1.16119385E-2,0E0,0E0,0E0,0E0,1.0327475E-4,0E0,5.3081512E-3,0E0,0E0,0E0,0E0,0E0,0E0,0E0,0E0],"parents":[2147483647,0,0,1,1,2,2,3,3,4,4,5,5,7,7,8,8,9,9,10,10,11,11,13,13,14,14,15,15,16,16,17,17,19,19,20,20,21,21,22,22,23,23,33,33,38,38,40,40],"right_children":[2,4,-1,-1,10,-1,-1,-1,-1,-1,-1,-1,-1,-1,-1,-1,-1,-1,-1,-1,-1,-1,-1,-1,-1,-1,-1,-1,-1,-1,-1,-1,-1,-1,-1,-1,-1,-1,-1,-1,-1,-1,-1,-1,-1,-1,-1,-1,-1],"split_conditions":[3.435E0,4.5E0,-3.2148238E-3,-2.6416238E-3,-1.625E1,-3.2171528E-3,-1.3401263E-4,-2.6529266E-3,-8.0114393E-4,-1.0012826E-3,-3.0074148E-3,-3.2252376E-3,-8.949419E-4,-2.6559792E-3,7.336027E-7,6.973723E-5,-9.5207593E-4,3.4959474E-5,-1.1347845E-3,-3.0124856E-3,-3.6572176E-4,-8.95657E-4,-3.2334018E-3,-2.657839E-3,5.335236E-5,7.6416465E-5,-7.561538E-5,8.249825E-5,-7.5198072E-6,-9.791014E-4,-3.569493E-5,-1.2947153E-5,5.5529432E-5,-3.014424E-3,6.0213635E-5,-5.5148534E-4,2.0338595E-4,-1.0713316E-3,3.51553E-5,-3.1212414E-5,-3.2348102E-3,-2.6601981E-3,-1.02456426E-4,3.224122E-5,-3.0162034E-3,-4.564286E-5,9.1464644E-5,-7.6829645E-5,-3.2359785E-3],"split_indices":[84,89,5,56,39,2147483647,2147483647,2147483647,2147483647,48,34,2147483647,2147483647,2147483647,2147483647,2147483647,2147483647,2147483647,2147483647,2147483647,2147483647,2147483647,2147483647,2147483647,2147483647,2147483647,2147483647,2147483647,2147483647,2147483647,2147483647,2147483647,2147483647,2147483647,2147483647,2147483647,2147483647,2147483647,2147483647,2147483647,2147483647,2147483647,2147483647,2147483647,2147483647,2147483647,2147483647,2147483647,2147483647],"sum_hessian":[5.725E3,3.655E3,2.07E3,1.748E3,1.907E3,2.068E3,2E0,1.733E3,1.5E1,1.9E1,1.888E3,2.057E3,1.1E1,1.731E3,2E0,3E0,1.2E1,3E0,1.6E1,1.883E3,5E0,1.1E1,2.046E3,1.73E3,1E0,1E0,1E0,2E0,1E0,1.1E1,1E0,2E0,1E0,1.882E3,1E0,4E0,1E0,8E0,3E0,1E0,2.045E3,1.728E3,2E0,1E0,1.881E3,2E0,1E0,1E0,2.044E3],"tree_param":{"num_deleted":"42","num_feature":"151","num_nodes":"49","size_leaf_vector":"0"}},{"base_weights":[-9.296333E-2,-9.440307E-2,-7.138455E-2,-9.085804E-2,-1.0217714E-1,-2.5312932E-2,-7.378413E-2,-9.104937E-2,-2.3118488E-2,-1.0230886E-1,-7.4438006E-3,8.984688E-3,-3.1324044E-2,-1.0408759E-2,-7.505878E-2,-9.1149755E-2,-5.2411724E-3,2.8060034E-3,-2.9730974E-2,-3.8373345E-3,-1.0240841E-1,-8.09364E-3,2.4866755E-5,1.0582181E-6,9.74059E-3,-3.5616577E-2,5.523908E-3,-1.4292915E-2,2.363366E-3,-7.569895E-2,-4.897942E-3,-9.126771E-2,-1.6046051E-2,2.788613E-3,-7.8045167E-3,-2.7647784E-3,5.359175E-3,-1.0250562E-1,-4.185622E-3,-3.6418557E-2,-1.146434E-3,-1.5072828E-2,-2.4790814E-4,2.6422997E-3,-8.718785E-5,-7.628696E-2,-6.616563E-3,-5.727171E-3,5.3123094E-4,-9.1322884E-2,-5.2080345E-3,-7.0850033E-4,-1.0256506E-1,-1.679181E-4,-4.402737E-3,-7.663799E-2,-2.299687E-3,-7.454664E-3,3.836397E-4],"default_left":[true,false,true,true,true,true,true,true,true,true,true,true,true,true,true,true,true,true,true,true,true,true,true,true,true,true,true,true,true,true,true,false,false,true,true,true,true,true,true,true,true,true,true,true,true,true,true,true,true,true,true,true,true,true,true,true,true,true,true],"id":44,"leaf_child_counts":[0,0,0,0,0,0,0,0,0,0,0,0,0,0,0,0,0,0,0,0,0,0,0,0,0,0,0,0,0,0,0,0,0,0,0,0,0,0,0,0,0,0,0,0,0,0,0,0,0,0,0,0,0,0,0,0,0,0,0],"left_children":[1,3,5,7,-1,-1,13,15,-1,-1,-1,-1,-1,-1,-1,31,-1,-1,-1,-1,-1,-1,-1,-1,-1,-1,-1,-1,-1,-1,-1,-1,-1,-1,-1,-1,-1,-1,-1,-1,-1,-1,-1,-1,-1,-1,-1,-1,-1,-1,-1,-1,-1,-1,-1,-1,-1,-1,-1],"loss_changes":[1.1249161E-1,5.6381226E-2,2.5881767E-2,2.8188705E-2,1.2481689E-2,9.967219E-3,2.2651672E-2,2.7702332E-2,4.915539E-3,1.1804581E-2,6.4454274E-5,8.730078E-5,6.983049E-3,1.2695913E-3,1.2818098E-2,1.8842697E-2,5.2091386E-4,3.4354214E-4,0E0,0E0,1.1022568E-2,0E0,0E0,0E0,0E0,4.136376E-4,0E0,1.3696286E-4,1.1071752E-5,9.757757E-3,9.2478294E-5,1.3114929E-2,0E0,0E0,0E0,0E0,0E0,8.939743E-3,3.0574593E-6,0E0,0E0,0E0,0E0,0E0,0E0,7.5809956E-3,1.09607936E-4,0E0,0E0,0E0,0E0,0E0,0E0,0E0,0E0,0E0,0E0,0E0,0E0],"parents":[2147483647,0,0,1,1,2,2,3,3,4,4,5,5,6,6,7,7,8,8,9,9,10,10,11,11,12,12,13,13,14,14,15,15,16,16,17,17,20,20,25,25,27,27,28,28,29,29,30,30,31,31,37,37,38,38,45,45,46,46],"right_children":[2,4,6,8,-1,-1,14,16,-1,-1,-1,-1,-1,-1,-1,32,-1,-1,-1,-1,-1,-1,-1,-1,-1,-1,-1,-1,-1,-1,-1,-1,-1,-1,-1,-1,-1,-1,-1,-1,-1,-1,-1,-1,-1,-1,-1,-1,-1,-1,-1,-1,-1,-1,-1,-1,-1,-1,-1],"split_conditions":[-1.5E-1,5.0950003E0,-3.3000002E0,4.45E0,-3.1757627E-3,-7.8675E-4,-2.4E1,4.3500004E0,-7.185446E-4,-3.1798566E-3,-2.3136039E-4,2.7925262E-4,-9.7358105E-4,-3.2351413E-4,-2.3328983E-3,3.4499998E0,-1.6290061E-4,8.721325E-5,-9.2406693E-4,-1.19268E-4,-3.1829507E-3,-2.5155803E-4,7.7288234E-7,3.2890423E-8,3.027468E-4,-1.106997E-3,1.7168831E-4,-4.4423738E-4,7.345566E-5,-2.3527953E-3,-1.5223268E-4,-2.8366873E-3,-4.987265E-4,8.667274E-5,-2.425718E-4,-8.593194E-5,1.6656825E-4,-3.1859719E-3,-1.3009312E-4,-1.1319234E-3,-3.5632256E-5,-4.684778E-4,-7.705221E-6,8.212519E-5,-2.7098813E-6,-2.3710711E-3,-2.0564906E-4,-1.7800591E-4,1.6511161E-5,-2.838402E-3,-1.6187066E-4,-2.2020864E-5,-3.1878194E-3,-5.219054E-6,-1.3684125E-4,-2.3819816E-3,-7.1476454E-5,-2.3169804E-4,1.1923887E-5],"split_indices":[5,84,38,57,17,148,53,18,4,2147483647,2147483647,2147483647,2147483647,53,6,37,1,2147483647,2147483647,2147483647,2147483647,2147483647,2147483647,2147483647,2147483647,2147483647,2147483647,2147483647,2147483647,2147483647,2147483647,54,0,2147483647,2147483647,2147483647,2147483647,2147483647,2147483647,2147483647,2147483647,2147483647,2147483647,2147483647,2147483647,2147483647,2147483647,2147483647,2147483647,2147483647,2147483647,2147483647,2147483647,2147483647,2147483647,2147483647,2147483647,2147483647,2147483647],"sum_hessian":[5.752E3,5.361E3,3.91E2,3.768E3,1.593E3,2.5E1,3.66E2,3.754E3,1.4E1,1.59E3,3E0,3E0,2.2E1,9E0,3.57E2,3.749E3,5E0,4E0,1E1,2E0,1.588E3,2E0,1E0,1E0,2E0,2E1,2E0,6E0,3E0,3.53E2,4E0,3.741E3,8E0,1E0,4E0,1E0,3E0,1.586E3,2E0,1.9E1,1E0,5E0,1E0,2E0,1E0,3.49E2,4E0,3E0,1E0,3.738E3,3E0,1E0,1.585E3,1E0,1E0,3.47E2,2E0,3E0,1E0],"tree_param":{"num_deleted":"44","num_feature":"151","num_nodes":"59","size_leaf_vector":"0"}},{"base_weights":[-8.957239E-2,-8.514305E-2,-9.7012E-2,-7.8770444E-2,-9.0719E-2,-9.732663E-2,-2.6488662E-2,-5.043425E-2,-7.992884E-2,-3.0365998E-2,-9.1164805E-2,-9.740671E-2,-2.3599265E-3,-2.8076917E-2,-1.6704105E-3,-2.0047618E-2,-5.867356E-2,-8.047448E-2,-3.585426E-2,-3.2290082E-2,2.1396594E-3,-9.1271944E-2,1.7701284E-3,-9.7480394E-2,-3.507292E-3,3.170035E-4,-2.894018E-3,-2.4249002E-2,6.0571176E-3,-1.7274365E-4,-6.03237E-2,-8.0536276E-2,2.2205075E-3,-4.2886965E-2,1.1242961E-2,-1.1478788E-4,-3.3445325E-2,-9.1367394E-2,-1.3354387E-4,-5.1483833E-3,7.0813447E-3,-4.163636E-4,-9.752513E-2,-6.7333924E-5,-3.7625919E-3,-3.241924E-2,5.152806E-4,6.9572264E-3,-4.2571896E-4,2.8388633E-3,-3.0274976E-3,-6.404696E-2,-1.11542875E-2,-1.8016471E-3,-8.061889E-2,-4.8238143E-2,-3.3111544E-3,-3.623058E-2,-5.0523463E-3,-9.1429815E-2,2.4749117E-3,-2.0461853E-3,1.9003568E-3,-9.7562686E-2,-1.7968776E-3],"default_left":[true,true,true,true,false,true,true,false,true,true,true,true,true,true,true,true,true,true,false,true,true,false,true,true,true,true,true,true,true,true,true,true,true,false,false,true,true,true,true,true,true,true,true,true,true,true,true,true,true,true,true,true,true,true,true,true,true,true,true,true,true,true,true,true,true],"id":45,"leaf_child_counts":[0,0,0,0,0,0,0,0,0,0,0,0,0,0,0,0,0,0,0,0,0,0,0,0,0,0,0,0,0,0,0,0,0,0,0,0,0,0,0,0,0,0,0,0,0,0,0,0,0,0,0,0,0,0,0,0,0,0,0,0,0,0,0,0,0],"left_children":[1,3,5,7,9,-1,-1,-1,17,-1,21,-1,-1,-1,-1,-1,-1,-1,33,-1,-1,-1,-1,-1,-1,-1,-1,-1,-1,-1,-1,-1,-1,-1,-1,-1,-1,-1,-1,-1,-1,-1,-1,-1,-1,-1,-1,-1,-1,-1,-1,-1,-1,-1,-1,-1,-1,-1,-1,-1,-1,-1,-1,-1,-1],"loss_changes":[1.0978317E-1,6.16436E-2,2.1057129E-2,1.9649506E-2,2.4303436E-2,1.3572693E-2,4.385747E-4,1.2892708E-2,1.2952805E-2,2.4876595E-3,2.051258E-2,1.1022568E-2,2.6027636E-5,0E0,0E0,5.383986E-3,6.8351626E-3,1.0420799E-2,1.7634302E-2,9.980686E-4,0E0,1.6388893E-2,7.960667E-4,8.626938E-3,7.92442E-6,0E0,0E0,6.815646E-3,1.0434023E-4,1.8689438E-4,5.7395697E-3,9.577751E-3,0E0,6.020017E-3,0E0,0E0,3.1814352E-4,1.3338089E-2,8.456144E-5,0E0,0E0,0E0,5.7373047E-3,0E0,0E0,0E0,0E0,0E0,0E0,0E0,0E0,0E0,0E0,0E0,0E0,0E0,0E0,0E0,0E0,0E0,0E0,0E0,0E0,0E0,0E0],"parents":[2147483647,0,0,1,1,2,2,3,3,4,4,5,5,6,6,7,7,8,8,9,9,10,10,11,11,12,12,15,15,16,16,17,17,18,18,19,19,21,21,22,22,23,23,24,24,27,27,28,28,29,29,30,30,31,31,33,33,36,36,37,37,38,38,42,42],"right_children":[2,4,6,8,10,-1,-1,-1,18,-1,22,-1,-1,-1,-1,-1,-1,-1,34,-1,-1,-1,-1,-1,-1,-1,-1,-1,-1,-1,-1,-1,-1,-1,-1,-1,-1,-1,-1,-1,-1,-1,-1,-1,-1,-1,-1,-1,-1,-1,-1,-1,-1,-1,-1,-1,-1,-1,-1,-1,-1,-1,-1,-1,-1],"split_conditions":[3.435E0,4.5E0,6E-1,6.75E1,-1.625E1,-3.0250042E-3,-8.2329276E-4,-1.5675444E-3,1.0333999E3,-9.4380404E-4,2.95E0,-3.027493E-3,-7.3348754E-5,-8.726572E-4,-5.1917945E-5,-6.2309904E-4,-1.82363E-3,-2.5012232E-3,7E0,-1.0036065E-3,6.6502645E-5,-2.8368188E-3,5.5017274E-5,-3.0297833E-3,-1.0900996E-4,9.85277E-6,-8.994883E-5,-7.5368205E-4,1.8826096E-4,-5.3690364E-6,-1.8749179E-3,-2.503144E-3,6.9015485E-5,-1.3329677E-3,3.494419E-4,-3.5677162E-6,-1.0395125E-3,-2.8397853E-3,-4.1506705E-6,-1.6001664E-4,2.2009492E-4,-1.2940976E-5,-3.0311737E-3,-2.0928023E-6,-1.1694493E-4,-1.0076207E-3,1.601541E-5,2.1623721E-4,-1.323175E-5,8.823457E-5,-9.40975E-5,-1.9906403E-3,-3.4668585E-4,-5.5996905E-5,-2.5057117E-3,-1.4992873E-3,-1.0291382E-4,-1.1260809E-3,-1.5703173E-4,-2.8417255E-3,7.692261E-5,-6.3597385E-5,5.9064896E-5,-3.032341E-3,-5.5848664E-5],"split_indices":[84,89,37,3,39,32,53,60,23,2,18,2147483647,2147483647,2147483647,2147483647,2147483647,2147483647,85,55,2147483647,2147483647,54,0,2147483647,2147483647,2147483647,2147483647,2147483647,2147483647,2147483647,2147483647,2147483647,2147483647,9,0,2147483647,2147483647,2147483647,2147483647,2147483647,2147483647,2147483647,2147483647,2147483647,2147483647,2147483647,2147483647,2147483647,2147483647,2147483647,2147483647,2147483647,2147483647,2147483647,2147483647,2147483647,2147483647,2147483647,2147483647,2147483647,2147483647,2147483647,2147483647,2147483647,2147483647],"sum_hessian":[5.796E3,3.71E3,2.086E3,1.801E3,1.909E3,2.073E3,1.3E1,8.8E1,1.713E3,1.9E1,1.89E3,2.071E3,2E0,1.1E1,2E0,2.6E1,6.2E1,1.684E3,2.9E1,1.8E1,1E0,1.888E3,2E0,2.069E3,2E0,1E0,1E0,2.3E1,3E0,2E0,6E1,1.683E3,1E0,2.6E1,3E0,1E0,1.7E1,1.886E3,2E0,1E0,1E0,1E0,2.068E3,1E0,1E0,1.5E1,8E0,2E0,1E0,1E0,1E0,5.3E1,7E0,2E0,1.681E3,2.1E1,5E0,1.3E1,4E0,1.885E3,1E0,1E0,1E0,2.067E3,1E0],"tree_param":{"num_deleted":"48","num_feature":"151","num_nodes":"65","size_leaf_vector":"0"}},{"base_weights":[-8.729069E-2,-8.3454065E-2,-9.5058694E-2,-8.377941E-2,-2.7941361E-2,-2.5062878E-2,-9.538217E-2,-8.567943E-2,-7.1244694E-2,3.674473E-3,-3.274589E-2,1.544228E-3,-2.7068064E-2,-9.552381E-2,-8.83984E-3,-8.636171E-2,-4.791604E-2,-5.7228222E-2,-7.964519E-2,-2.4685953E-3,6.044961E-3,-3.510721E-2,4.127799E-3,-9.2119805E-4,-2.7926302E-2,-9.5661044E-2,-9.502961E-3,5.9527234E-4,-1.0029426E-2,-8.642518E-2,-3.9116964E-3,-6.0005435E-3,-5.6432493E-2,-5.936991E-2,-2.838936E-3,-8.020259E-2,9.7926E-3,-3.8005758E-2,-1.4559778E-3,-9.5745586E-2,-3.140913E-3,-1.0419453E-2,2.1093358E-4,-8.648624E-2,-4.555698E-3,-6.220463E-3,2.1613145E-3,3.1306637E-3,-1.0541388E-2,-5.9207484E-2,6.1717216E-4,-2.015131E-2,-6.18319E-2,7.1885525E-3,-9.837116E-3,-8.063698E-2,5.9235017E-3,-3.940411E-2,2.176283E-4,-1.7366634E-3,1.1736837E-5,-7.7087837E-3,-9.584896E-2,4.024875E-4,-3.8323314E-3],"default_left":[true,true,true,true,true,true,true,true,true,true,true,true,true,true,true,false,true,false,false,true,true,true,true,true,true,true,true,true,true,true,true,true,true,true,false,true,false,true,true,true,true,true,true,true,true,true,true,true,true,true,true,true,true,true,true,false,false,true,true,true,true,true,true,true,true],"id":46,"leaf_child_counts":[0,0,0,0,0,0,0,0,0,0,0,0,0,0,0,0,0,0,0,0,0,0,0,0,0,0,0,0,0,0,0,0,0,0,0,0,0,0,0,0,0,0,0,0,0,0,0,0,0,0,0,0,0,0,0,0,0,0,0,0,0,0,0,0,0],"left_children":[1,3,5,7,-1,-1,-1,15,17,-1,-1,-1,-1,-1,-1,-1,31,33,35,-1,-1,-1,-1,-1,-1,-1,-1,-1,-1,-1,-1,-1,-1,-1,-1,55,-1,-1,-1,-1,-1,-1,-1,-1,-1,-1,-1,-1,-1,-1,-1,-1,-1,-1,-1,-1,-1,-1,-1,-1,-1,-1,-1,-1,-1],"loss_changes":[9.4306946E-2,4.8374176E-2,1.815033E-2,3.3340454E-2,6.9402475E-3,1.5794495E-3,1.4122009E-2,4.582405E-2,2.2815466E-2,3.4928572E-4,4.3795817E-3,0E0,2.1441188E-4,1.260376E-2,2.1461549E-4,1.3889313E-2,2.5883019E-2,2.7558923E-2,2.4446487E-2,0E0,0E0,2.6600026E-3,0E0,0E0,0E0,1.1297226E-2,1.451819E-4,0E0,0E0,1.2552261E-2,3.131709E-4,1.3569805E-3,1.0947168E-2,1.0958493E-2,2.0924294E-3,1.7205954E-2,0E0,1.6812347E-3,5.50354E-6,9.2868805E-3,4.4308566E-5,0E0,0E0,0E0,0E0,0E0,0E0,0E0,0E0,0E0,0E0,0E0,0E0,0E0,0E0,0E0,0E0,0E0,0E0,0E0,0E0,0E0,0E0,0E0,0E0],"parents":[2147483647,0,0,1,1,2,2,3,3,4,4,5,5,6,6,7,7,8,8,9,9,10,10,12,12,13,13,14,14,15,15,16,16,17,17,18,18,21,21,25,25,26,26,29,29,30,30,31,31,32,32,33,33,34,34,35,35,37,37,38,38,39,39,40,40],"right_children":[2,4,6,8,-1,-1,-1,16,18,-1,-1,-1,-1,-1,-1,-1,32,34,36,-1,-1,-1,-1,-1,-1,-1,-1,-1,-1,-1,-1,-1,-1,-1,-1,56,-1,-1,-1,-1,-1,-1,-1,-1,-1,-1,-1,-1,-1,-1,-1,-1,-1,-1,-1,-1,-1,-1,-1,-1,-1,-1,-1,-1,-1],"split_conditions":[4.1549997E0,4.45E0,-1.085E1,5E-1,-8.6844404E-4,-7.7897805E-4,-2.9645683E-3,2.25E0,5E-1,1.1420611E-4,-1.0177734E-3,4.7996076E-5,-8.413011E-4,-2.968971E-3,-2.7475064E-4,-2.6842041E-3,-1.65E0,8.25E-1,2.6950002E0,-7.672629E-5,1.8788314E-4,-1.0911655E-3,1.2829591E-4,-2.863171E-5,-8.67976E-4,-2.9732361E-3,-2.9536107E-4,1.850163E-5,-3.1172408E-4,-2.6861767E-3,-1.21579236E-4,-1.865026E-4,-1.7539755E-3,-1.8452732E-3,-8.8236826E-5,5.5E0,3.0436332E-4,-1.1812551E-3,-4.525317E-5,-2.9758639E-3,-9.7622564E-5,-3.2384647E-4,6.556016E-6,-2.6880745E-3,-1.4159542E-4,-1.9333791E-4,6.717571E-5,9.7304E-5,-3.2763634E-4,-1.8402248E-3,1.9182296E-5,-6.263218E-4,-1.9217941E-3,2.2342704E-4,-3.0574691E-4,-2.5062738E-3,1.8410807E-4,-1.2247171E-3,6.7640945E-6,-5.397715E-5,3.6479204E-7,-2.3959632E-4,-2.979077E-3,1.2509694E-5,-1.191125E-4],"split_indices":[84,57,17,93,31,2,17,17,7,2147483647,2147483647,2147483647,2147483647,2147483647,2147483647,54,32,79,84,2147483647,2147483647,2147483647,2147483647,2147483647,2147483647,2147483647,2147483647,2147483647,2147483647,2147483647,2147483647,16,41,28,34,89,0,2147483647,2147483647,2147483647,2147483647,2147483647,2147483647,2147483647,2147483647,2147483647,2147483647,2147483647,2147483647,2147483647,2147483647,2147483647,2147483647,2147483647,2147483647,0,0,2147483647,2147483647,2147483647,2147483647,2147483647,2147483647,2147483647,2147483647],"sum_hessian":[5.782E3,3.948E3,1.834E3,3.92E3,2.8E1,1.2E1,1.822E3,3.354E3,5.66E2,4E0,2.4E1,1E0,1.1E1,1.818E3,4E0,3.282E3,7.2E1,2.41E2,3.25E2,1E0,3E0,2.3E1,1E0,1E0,1E1,1.814E3,4E0,1E0,3E0,3.279E3,3E0,1.5E1,5.7E1,2.31E2,1E1,3.24E2,1E0,2E1,3E0,1.812E3,2E0,3E0,1E0,3.276E3,3E0,2E0,1E0,6E0,9E0,5.4E1,3E0,1.9E1,2.12E2,4E0,6E0,3.23E2,1E0,1.9E1,1E0,1E0,2E0,3E0,1.809E3,1E0,1E0],"tree_param":{"num_deleted":"44","num_feature":"151","num_nodes":"65","size_leaf_vector":"0"}},{"base_weights":[-8.4043145E-2,-6.327742E-2,-8.526689E-2,-6.776436E-2,-3.3300754E-2,-8.667097E-2,-7.165587E-2,-2.170485E-3,-6.9026396E-2,-1.0416011E-2,-4.4783376E-2,-9.120713E-2,-8.158218E-2,-5.6926332E-2,-7.88908E-2,4.4589406E-3,-7.135334E-3,-7.1190365E-2,-1.9363742E-2,5.192437E-3,-1.4744511E-2,-4.7452252E-2,1.1940781E-3,-8.947635E-3,-9.133822E-2,-8.163027E-2,2.9702317E-3,-5.9613563E-2,-1.4030232E-2,-7.9300985E-2,5.9065665E-3,-7.205615E-2,-3.3725763E-3,5.763283E-3,-2.6560383E-2,-3.688618E-4,6.3394946E-3,-1.7562622E-2,1.0041812E-3,-5.0625008E-2,-5.7078446E-3,2.2730099E-3,-1.2434418E-2,-9.145003E-2,-6.5109045E-3,-8.1820376E-2,-2.1554995E-2,-5.3337873E-3,-6.0713522E-2,-2.1234991E-2,9.240248E-4,-5.1122843E-3,-7.979858E-2,-7.243765E-2,2.9827878E-3,-7.746718E-3,3.8059286E-3,-2.772998E-2,-1.9777026E-4,1.6785008E-3,-1.9868804E-2,2.1493232E-3,-7.33138E-4,-9.074522E-4,-5.182841E-2,2.4733983E-3,8.704255E-6,8.763814E-4,-9.1491096E-2,1.7309171E-3,-8.47872E-3,-6.0187127E-3,-8.1891745E-2,-2.2992758E-2,6.452622E-4,-6.1164316E-2,2.6203385E-3,-1.6947598E-3,-2.4052054E-2,-2.8143253E-3,3.1454852E-3,-5.8290404E-3,3.1241422E-4,-8.061912E-2,-1.2596387E-2],"default_left":[true,true,true,false,true,true,true,true,true,true,true,false,true,true,true,true,true,true,false,true,true,true,true,true,true,true,true,false,true,true,true,true,true,true,true,true,true,true,true,true,true,true,true,false,true,true,true,true,true,true,true,true,true,true,true,true,true,true,true,true,true,true,true,true,true,true,true,true,true,true,true,true,true,true,true,true,true,true,true,true,true,true,true,true,true],"id":47,"leaf_child_counts":[0,0,0,0,0,0,0,0,0,0,0,0,0,0,0,0,0,0,0,0,0,0,0,0,0,0,0,0,0,0,0,0,0,0,0,0,0,0,0,0,0,0,0,0,0,0,0,0,0,0,0,0,0,0,0,0,0,0,0,0,0,0,0,0,0,0,0,0,0,0,0,0,0,0,0,0,0,0,0,0,0,0,0,0,0],"left_children":[1,3,5,7,-1,11,13,-1,17,-1,-1,23,-1,27,-1,-1,-1,-1,-1,-1,-1,-1,-1,-1,43,-1,-1,-1,-1,-1,-1,-1,-1,-1,-1,-1,-1,-1,-1,-1,-1,-1,-1,-1,-1,-1,-1,-1,-1,-1,-1,-1,-1,-1,-1,-1,-1,-1,-1,-1,-1,-1,-1,-1,-1,-1,-1,-1,-1,-1,-1,-1,-1,-1,-1,-1,-1,-1,-1,-1,-1,-1,-1,-1,-1],"loss_changes":[9.222031E-2,2.5725722E-2,4.1469574E-2,2.3427844E-2,1.2704939E-2,3.7994385E-2,1.5334368E-2,8.364239E-4,1.8082261E-2,3.1116225E-3,5.574487E-3,1.855278E-2,1.2025833E-2,1.708901E-2,1.6792774E-2,0E0,0E0,1.3975382E-2,6.189199E-3,1.17944786E-4,1.4997958E-3,2.295971E-3,0E0,8.607897E-4,1.7492294E-2,9.634018E-3,0E0,8.975744E-3,2.9810513E-3,8.852005E-3,0E0,1.000154E-2,7.2656677E-4,0E0,6.2022265E-4,0E0,0E0,1.4771689E-3,4.3149623E-5,1.6220808E-3,0E0,5.173766E-6,0E0,1.0116577E-2,3.6982598E-4,7.885933E-3,8.126162E-4,0E0,7.2598457E-3,5.813595E-4,2.3579056E-4,6.801961E-5,9.047985E-3,0E0,0E0,0E0,0E0,0E0,0E0,0E0,0E0,0E0,0E0,0E0,0E0,0E0,0E0,0E0,0E0,0E0,0E0,0E0,0E0,0E0,0E0,0E0,0E0,0E0,0E0,0E0,0E0,0E0,0E0,0E0,0E0],"parents":[2147483647,0,0,1,1,2,2,3,3,4,4,5,5,6,6,7,7,8,8,9,9,10,10,11,11,12,12,13,13,14,14,17,17,18,18,19,19,20,20,21,21,23,23,24,24,25,25,27,27,28,28,29,29,31,31,32,32,34,34,37,37,38,38,39,39,41,41,43,43,44,44,45,45,46,46,48,48,49,49,50,50,51,51,52,52],"right_children":[2,4,6,8,-1,12,14,-1,18,-1,-1,24,-1,28,-1,-1,-1,-1,-1,-1,-1,-1,-1,-1,44,-1,-1,-1,-1,-1,-1,-1,-1,-1,-1,-1,-1,-1,-1,-1,-1,-1,-1,-1,-1,-1,-1,-1,-1,-1,-1,-1,-1,-1,-1,-1,-1,-1,-1,-1,-1,-1,-1,-1,-1,-1,-1,-1,-1,-1,-1,-1,-1,-1,-1,-1,-1,-1,-1,-1,-1,-1,-1,-1,-1],"split_conditions":[8.15E1,2.25E0,5E-1,-1.3799999E1,-1.035019E-3,-1.815E0,5E-1,-6.7460736E-5,1.95E0,-3.237395E-4,-1.3919099E-3,-1.8349998E1,-2.5356517E-3,9.95E1,-2.452001E-3,1.385881E-4,-2.2177296E-4,-2.212664E-3,-6.018435E-4,1.6138588E-4,-4.582734E-4,-1.474861E-3,3.711308E-5,-2.78101E-4,5.8E0,-2.5371462E-3,9.231762E-5,-1.8528461E-3,-4.3607294E-4,-2.4647499E-3,1.835817E-4,-2.2395737E-3,-1.0482287E-4,1.7912831E-4,-8.2552194E-4,-1.1464575E-5,1.9703752E-4,-5.45863E-4,3.1210908E-5,-1.5734733E-3,-1.7740524E-4,7.064731E-5,-3.8647355E-4,-2.8423537E-3,-2.023651E-4,-2.543055E-3,-6.6994975E-4,-1.6577917E-4,-1.8870339E-3,-6.600037E-4,2.8719569E-5,-1.5889465E-4,-2.4802156E-3,-2.251431E-3,9.270788E-5,-2.4077535E-4,1.1829188E-4,-8.6187414E-4,-6.1468877E-6,5.21694E-5,-6.175413E-4,6.680301E-5,-2.2786626E-5,-2.8204477E-5,-1.6108763E-3,7.687557E-5,2.7053653E-7,2.7238766E-5,-2.8436303E-3,5.379855E-5,-2.6352666E-4,-1.870673E-4,-2.5452732E-3,-7.1463676E-4,2.0055362E-5,-1.9010451E-3,8.144261E-5,-5.2674746E-5,-7.475607E-4,-8.7471904E-5,9.776467E-5,-1.8117212E-4,9.710131E-6,-2.5057187E-3,-3.915077E-4],"split_indices":[26,17,93,49,17,147,7,57,56,2147483647,2147483647,34,25,28,89,2147483647,2147483647,5,60,2147483647,2147483647,2147483647,2147483647,3,37,2147483647,2147483647,35,150,2147483647,2147483647,2147483647,2147483647,2147483647,2147483647,2147483647,2147483647,2147483647,2147483647,2147483647,2147483647,2147483647,2147483647,54,1,2147483647,2147483647,